/******************************************************************************
 * @file     cnn_model_weights.h
 * @version  V1.00
 * @brief    Automatically generated weights for CNN.
 *
 * @note     M031 Coin Classifier (Source: float32_coin_best_model.h5)
 *****************************************************************************/
#ifndef CNN_MODEL_WEIGHTS_H
#define CNN_MODEL_WEIGHTS_H

/* Layer 0: Conv2D (conv2d) */
// Shape: 27x4
static const float conv_0_weights[27][4] = {
    {-2.591215670e-01f, -9.289695323e-02f, -6.922467798e-02f, -2.884187102e-01f},
    {-4.004228488e-02f, -3.909540921e-02f, -2.058822662e-01f, -1.108891293e-01f},
    {-1.819860190e-01f, -1.691590101e-01f, -2.688926756e-01f, -2.041806877e-01f},
    {2.170999497e-01f, 3.165808693e-02f, 2.858716846e-01f, -2.919836668e-03f},
    {2.594154775e-01f, -1.988738179e-01f, -8.983781934e-02f, -3.442570195e-02f},
    {2.903035879e-01f, 1.161952764e-01f, 1.473032385e-01f, -1.061117873e-01f},
    {-2.369711101e-01f, 1.661110371e-01f, 6.348882616e-02f, -5.687702075e-02f},
    {2.416946292e-01f, 2.428595275e-01f, 4.695729539e-02f, -8.834495395e-02f},
    {7.210391760e-02f, -2.496915162e-01f, -8.488040417e-02f, -5.451696366e-02f},
    {1.130391285e-01f, 2.364013791e-01f, 3.373958543e-02f, -1.953689158e-01f},
    {-2.651225328e-01f, -2.927111089e-01f, -2.649021447e-01f, 2.194635570e-01f},
    {-2.311671674e-01f, -9.680145234e-02f, -1.836220026e-01f, -3.729119524e-02f},
    {1.114124209e-01f, 2.280365527e-01f, 6.585632265e-02f, -3.077518046e-01f},
    {-3.368688375e-02f, 5.570154265e-02f, 1.132388785e-01f, -1.732561737e-01f},
    {-2.308578789e-01f, 2.157825790e-02f, -1.133780554e-01f, 6.134390458e-02f},
    {-7.813250273e-02f, -9.729082696e-03f, -3.106631637e-01f, -2.725987434e-01f},
    {1.848566830e-01f, -1.260517389e-01f, -2.514155805e-01f, 2.972254753e-01f},
    {5.832961202e-02f, -1.336414069e-01f, -1.694671959e-01f, -2.945384979e-01f},
    {9.576672316e-02f, -8.471566439e-02f, -7.816469669e-02f, 2.521109283e-01f},
    {6.000322476e-02f, -1.742153466e-01f, 1.309390962e-01f, 2.502328949e-03f},
    {-1.179874390e-01f, 2.712963521e-02f, -8.653114736e-02f, -2.398756444e-01f},
    {-2.002639771e-01f, 1.681174487e-01f, 2.336837500e-01f, 1.623730361e-01f},
    {1.948455274e-01f, 2.793229818e-01f, -2.737989128e-01f, -1.620307937e-02f},
    {1.150215790e-02f, -1.863998473e-01f, -2.635974884e-01f, -1.675871313e-01f},
    {-1.131967530e-01f, -7.437416352e-03f, 2.413358092e-01f, -2.677965164e-01f},
    {1.402373314e-01f, -2.393540293e-01f, 2.412697226e-01f, -1.620565206e-01f},
    {-8.597154170e-02f, -2.167275250e-01f, -3.064194322e-01f, -4.515555128e-02f},
};

// Shape: (4,)
static const float conv_0_bias[4] = {
    2.873694524e-03f, 1.193282288e-02f, -1.816166937e-02f, 4.464938119e-02f
};

/* Layer 1: BatchNormalization (batch_normalization) */
// Shape: (4,)
static const float bn_0_gamma[4] = {
    1.006239891e+00f, 9.584966898e-01f, 9.900997281e-01f, 1.076350689e+00f
};

// Shape: (4,)
static const float bn_0_beta[4] = {
    2.689724555e-03f, -6.372207310e-03f, 1.022649836e-02f, -4.540222138e-02f
};

// Shape: (4,)
static const float bn_0_mean[4] = {
    1.516120974e-02f, 2.159846044e-04f, 2.616073289e-05f, 3.270994348e-04f
};

// Shape: (4,)
static const float bn_0_var[4] = {
    4.135407042e-03f, 1.086297834e-05f, 6.015105214e-07f, 1.265853825e-05f
};

/* Layer 3: Conv2D (conv2d_1) */
// Shape: 36x4
static const float conv_1_weights[36][4] = {
    {1.916918457e-01f, 7.871869951e-02f, 1.771499813e-01f, 1.697797924e-01f},
    {-2.022659928e-01f, -7.461560518e-02f, -1.007614657e-01f, 8.748762310e-02f},
    {2.615965903e-01f, -7.682967116e-04f, 2.514831424e-01f, 2.018765658e-01f},
    {-8.865074255e-03f, 2.897515297e-01f, -8.087594062e-02f, -2.905256450e-01f},
    {4.206375778e-02f, 1.580088437e-01f, 1.965175420e-01f, 2.782365382e-01f},
    {-1.610641778e-01f, -4.406413063e-03f, -3.470830619e-02f, 6.323151290e-02f},
    {1.115605310e-01f, -2.310938388e-01f, 2.346967347e-03f, -2.107202411e-01f},
    {-5.819699913e-02f, 7.985488325e-02f, -3.341964781e-01f, -1.964517683e-02f},
    {-1.570911407e-01f, 9.228751995e-03f, 3.358350098e-01f, 1.762716919e-01f},
    {2.555171261e-03f, 1.017489284e-01f, -6.336615235e-02f, 8.428284898e-03f},
    {-7.327259332e-02f, -1.666670889e-01f, 2.221613675e-01f, 2.438828498e-01f},
    {-7.560241222e-02f, 1.664224267e-01f, -1.003758460e-01f, -2.373198122e-01f},
    {2.123316377e-01f, -2.038930655e-01f, -2.346574515e-01f, -9.074346721e-02f},
    {1.462567598e-01f, -1.666795760e-01f, -2.931942344e-01f, -3.398269415e-02f},
    {-2.138376236e-01f, 1.788178086e-02f, -8.231591433e-02f, -4.199409857e-03f},
    {2.778712101e-02f, -4.612156656e-03f, -2.254117280e-01f, -3.026148975e-01f},
    {1.814340949e-01f, -1.860601157e-01f, -1.929123253e-01f, 8.068734407e-02f},
    {-9.304941446e-02f, -1.655157954e-01f, -1.713763773e-01f, -2.784006298e-01f},
    {-1.954983771e-01f, 2.155132294e-01f, -9.938849509e-02f, 2.566965520e-01f},
    {-3.303985298e-01f, 1.052662060e-01f, -2.447674572e-01f, -2.466170192e-01f},
    {9.402547032e-02f, -1.077714413e-01f, -1.802458614e-01f, 1.300109178e-01f},
    {-1.651526541e-01f, -5.936452746e-02f, 3.883043677e-02f, -6.668429077e-02f},
    {1.739293933e-01f, -2.696600929e-02f, 6.812706590e-02f, -1.442521662e-01f},
    {-2.098609656e-01f, -1.206743941e-01f, 1.487533301e-01f, -2.864610255e-01f},
    {-9.340409189e-02f, 1.820392162e-01f, -2.501993179e-01f, 1.399419904e-01f},
    {1.745863855e-01f, -1.928109676e-01f, -2.531872690e-01f, 1.699281335e-01f},
    {-4.610258713e-02f, 2.115954086e-02f, -5.094017833e-02f, 2.415671349e-01f},
    {-1.569334567e-01f, 3.308511674e-01f, -1.170837954e-01f, 1.607699096e-01f},
    {2.828186937e-02f, 2.514134645e-01f, -8.130696416e-02f, 3.237732500e-02f},
    {-4.449016601e-02f, 2.159507573e-01f, -1.609988362e-01f, -2.301026434e-01f},
    {1.472268105e-01f, -5.132846162e-02f, 3.066476900e-03f, 8.807353675e-02f},
    {-2.293790877e-02f, 1.888376474e-02f, -7.752311230e-02f, 8.331014216e-02f},
    {8.757145144e-03f, 2.120279334e-02f, -8.121210337e-02f, -1.337332428e-01f},
    {2.181499898e-01f, 2.528144121e-01f, -1.601654589e-01f, 8.647248149e-02f},
    {-3.193333978e-03f, 2.588760853e-01f, -9.693443030e-02f, 2.677259780e-02f},
    {-2.304091305e-01f, 3.061981499e-01f, -4.855308309e-02f, 4.753499757e-03f},
};

// Shape: (4,)
static const float conv_1_bias[4] = {
    6.048549339e-02f, -3.921397403e-02f, 7.902321406e-03f, 3.651992232e-02f
};

/* Layer 4: BatchNormalization (batch_normalization_1) */
// Shape: (4,)
static const float bn_1_gamma[4] = {
    9.823873639e-01f, 9.662359357e-01f, 1.028083205e+00f, 9.871432185e-01f
};

// Shape: (4,)
static const float bn_1_beta[4] = {
    -5.975047499e-02f, 9.008917212e-02f, -7.189226151e-02f, -7.271245588e-03f
};

// Shape: (4,)
static const float bn_1_mean[4] = {
    2.006433308e-01f, 6.226062402e-02f, 1.281482130e-01f, 2.185844183e-01f
};

// Shape: (4,)
static const float bn_1_var[4] = {
    2.917228341e-01f, 5.967796966e-02f, 1.045452431e-02f, 3.928581178e-01f
};

/* Layer 6: Conv2D (conv2d_2) */
// Shape: 36x8
static const float conv_2_weights[36][8] = {
    {1.651393473e-01f, -1.110216826e-01f, 9.025168419e-02f, 8.276771754e-02f, 9.575203061e-02f, -1.199486777e-01f, 1.271362603e-01f, 2.075119466e-01f},
    {-1.940181851e-01f, -9.683804959e-02f, 8.321142755e-03f, 4.857932776e-02f, -1.418931931e-01f, -9.642493725e-02f, -2.429035679e-02f, -3.078812547e-02f},
    {1.023587137e-01f, -1.117535401e-02f, 1.695377678e-01f, -2.533385297e-03f, -2.132328600e-02f, 2.189264446e-01f, -9.348729253e-02f, -7.578611374e-02f},
    {-1.469557136e-01f, 5.544886924e-03f, 1.174872965e-01f, -7.838054001e-02f, -9.436314926e-03f, 2.120061815e-01f, -1.193258725e-02f, -1.797134727e-01f},
    {6.480114907e-02f, -2.598883584e-03f, 6.413269043e-02f, -6.675563287e-03f, 4.594133422e-02f, -1.069132909e-01f, 1.019619405e-01f, -9.044691920e-02f},
    {-8.447100222e-02f, -5.029078200e-02f, 1.001593098e-01f, 6.893462688e-02f, -1.304017007e-01f, -1.064559370e-01f, -1.397833973e-01f, -1.190968528e-01f},
    {-7.359958440e-02f, -1.065241620e-01f, 7.157365978e-02f, 3.423245996e-02f, -1.576145738e-01f, -3.196686879e-02f, 1.649050564e-01f, -5.883226171e-02f},
    {-4.604617134e-02f, 8.986064047e-02f, 5.976048112e-02f, 2.253310233e-01f, 2.204746306e-01f, 1.838348359e-01f, -1.715760976e-01f, 2.483711764e-02f},
    {1.712020934e-01f, 1.623555422e-01f, -2.878223918e-02f, 1.191536561e-01f, 5.957309157e-02f, 6.002639607e-02f, 1.191138625e-01f, 3.383320943e-02f},
    {-1.355380518e-03f, -1.335073709e-01f, -1.619141996e-01f, 1.989654303e-01f, -1.812012494e-01f, -1.831077635e-01f, -2.848192491e-02f, 9.436834604e-02f},
    {6.958595663e-02f, -1.003003344e-01f, 2.903324366e-02f, -3.575085849e-02f, 6.356307864e-02f, 1.278964877e-01f, 2.313540317e-02f, -1.829802096e-01f},
    {-1.369854659e-01f, -1.423038691e-01f, -4.105506837e-02f, 7.506837696e-02f, 1.545738336e-02f, -9.623987973e-02f, -1.878977418e-01f, -1.061833948e-01f},
    {-7.563922554e-02f, 8.547605574e-02f, -1.969198883e-01f, 8.270960301e-02f, 1.298962831e-01f, 7.793433219e-02f, -1.788441986e-01f, -2.097356170e-01f},
    {2.582534030e-02f, -1.565660536e-01f, 9.450304508e-02f, 1.776659787e-01f, -1.184427887e-01f, -3.221813962e-02f, -7.055673003e-02f, -2.130261064e-01f},
    {-2.390694991e-02f, 1.471908689e-01f, 1.762238741e-01f, 2.531112731e-01f, -5.149397068e-03f, 1.035532802e-01f, 1.557931304e-01f, 1.397823989e-01f},
    {-1.583940089e-01f, 1.705926657e-01f, -2.096311562e-02f, 2.066279650e-01f, -6.912724674e-02f, -1.734564453e-01f, 2.191488892e-01f, 2.504580617e-01f},
    {-8.927530795e-02f, -4.786407575e-02f, 1.049590930e-01f, -1.468066424e-01f, -1.829087920e-02f, -5.145650730e-02f, 1.812991947e-01f, 1.865388826e-02f},
    {-7.204014808e-02f, 1.091697812e-01f, -6.501202285e-02f, -7.827875018e-02f, -4.946490750e-02f, -1.892094761e-01f, -2.497809678e-01f, 3.329312801e-02f},
    {-1.809841841e-01f, -1.715635359e-01f, 1.374477595e-01f, 1.097621694e-01f, 1.920249015e-01f, 2.573021054e-01f, 2.157254815e-01f, -4.070981219e-02f},
    {-1.672720909e-02f, -1.241485551e-01f, -2.821056247e-01f, -8.692266792e-02f, 8.733063191e-02f, -7.869047672e-02f, 2.165335417e-01f, -1.254604459e-01f},
    {-3.376946226e-02f, 6.864845753e-03f, -1.576651037e-01f, -5.271504074e-02f, -1.762021780e-01f, 2.138478905e-01f, 2.142222077e-01f, -9.382530116e-03f},
    {-6.666623056e-02f, -5.867230520e-02f, -1.942372024e-01f, -1.628015190e-01f, -1.614558548e-01f, -1.608400047e-01f, -1.634304076e-01f, -1.511228830e-01f},
    {2.865670323e-01f, 4.631000012e-02f, 1.059215292e-01f, 1.190390363e-01f, -1.453488171e-01f, -1.003575251e-01f, -2.092895284e-02f, 2.569422424e-01f},
    {-6.045671925e-02f, -2.149902731e-01f, -5.428519472e-02f, 9.296168387e-02f, 1.211308762e-01f, 1.183647439e-01f, 4.130742326e-02f, 7.152158767e-02f},
    {1.721333861e-01f, -9.108667821e-02f, 1.777918041e-01f, 4.305571690e-02f, -8.709874749e-02f, -1.269252151e-01f, -4.886065796e-02f, -7.406537235e-02f},
    {-2.336734384e-01f, -1.247447506e-01f, -2.572627366e-01f, -2.445615679e-01f, -1.603058130e-01f, -2.083168477e-01f, -9.655875713e-02f, -7.411467284e-02f},
    {1.878871322e-01f, 1.231147200e-01f, 3.110325634e-01f, -1.769951880e-01f, 2.102055401e-01f, 1.051475033e-01f, -2.606710233e-02f, -1.992844790e-01f},
    {4.937792197e-02f, 1.366451830e-01f, 1.996589005e-01f, -1.572498977e-01f, 1.231555268e-01f, -4.230915103e-03f, -1.230002865e-01f, 2.449803799e-01f},
    {-2.724820748e-02f, 1.308862772e-02f, 1.533599943e-01f, -1.724248827e-01f, -1.940194517e-02f, 6.699322909e-02f, 5.178305879e-02f, 8.317866176e-02f},
    {1.221636534e-01f, -2.389121950e-01f, 1.752285212e-01f, 1.176709831e-01f, -5.217354745e-03f, 1.322879344e-01f, -1.282054037e-01f, 1.232382432e-01f},
    {2.188419551e-02f, 1.602539606e-02f, -1.813912839e-01f, -1.976825297e-01f, 2.478868663e-01f, -5.533918738e-02f, 2.169871628e-01f, -1.258812398e-01f},
    {-1.545071900e-01f, 2.253036946e-01f, 9.368944913e-02f, 8.652042598e-02f, -1.376782805e-01f, 1.053248048e-01f, -1.642287225e-01f, 1.471648067e-01f},
    {-1.875056028e-01f, 1.902958304e-01f, -3.865490109e-02f, 6.462051719e-02f, 2.080423087e-01f, 1.057936926e-03f, -1.191475242e-01f, 1.228867993e-01f},
    {-2.136272937e-01f, 1.850026250e-01f, -1.835827678e-01f, -1.671782732e-01f, -2.134067267e-01f, 2.970198914e-02f, 1.623237729e-01f, -1.224461496e-01f},
    {-4.902235046e-02f, -1.285444200e-01f, 4.714404419e-02f, 1.522999853e-01f, -6.461807340e-02f, 4.644384980e-02f, -1.493554860e-01f, -4.627133161e-02f},
    {-1.810707599e-01f, -1.100394651e-01f, 1.473411322e-01f, 1.266313791e-01f, -1.520192474e-01f, 1.070698872e-01f, -2.159926109e-02f, 9.685724508e-04f},
};

// Shape: (8,)
static const float conv_2_bias[8] = {
    -4.522992298e-02f, -2.120482363e-02f, -1.226806641e-02f, -8.832915127e-02f, -1.066119745e-01f, -4.381639883e-02f, -8.177167177e-02f, -4.234133288e-02f
};

/* Layer 7: BatchNormalization (batch_normalization_2) */
// Shape: (8,)
static const float bn_2_gamma[8] = {
    1.056672812e+00f, 1.196562886e+00f, 1.090506434e+00f, 1.128621697e+00f, 1.220153213e+00f, 1.139386177e+00f, 1.151119709e+00f, 1.079426885e+00f
};

// Shape: (8,)
static const float bn_2_beta[8] = {
    1.165272202e-02f, -3.699130192e-02f, -4.501053318e-02f, -3.737186268e-02f, 3.460175125e-03f, -3.746860102e-02f, -2.940668352e-02f, -5.887705833e-02f
};

// Shape: (8,)
static const float bn_2_mean[8] = {
    2.982643545e-01f, 8.719784766e-02f, 4.782108366e-01f, 2.579415739e-01f, 1.493201256e-01f, 2.777411938e-01f, 2.084113508e-01f, 1.137131304e-01f
};

// Shape: (8,)
static const float bn_2_var[8] = {
    9.099010378e-02f, 8.414997905e-02f, 4.981406033e-01f, 3.298408389e-01f, 1.562801450e-01f, 2.659743130e-01f, 2.324255854e-01f, 9.022325277e-02f
};

/* Layer 10: Dense (dense) */
// Shape: 560x12
static const float dense_0_weights[560][12] = {
    {-5.383508280e-03f, -2.074398473e-02f, -4.127653688e-02f, -7.672718167e-02f, 7.907292992e-02f, -3.590521589e-02f, -1.271180660e-01f, -1.009959057e-01f, -5.367601663e-02f, 1.260718703e-02f, 3.653511405e-02f, 1.265838146e-01f},
    {-5.494821351e-03f, 5.830048025e-02f, 2.595611475e-02f, -1.426035352e-02f, 7.471007854e-02f, 1.442123298e-02f, 1.201989204e-01f, -4.037939012e-02f, -5.872100219e-02f, 8.065387607e-02f, -2.005570009e-02f, 5.497346632e-03f},
    {1.286471635e-02f, 2.960013971e-02f, -2.011404140e-03f, 2.385393344e-02f, 7.333128247e-03f, -2.799510583e-02f, 4.733478650e-02f, 2.805542201e-02f, 4.060387611e-03f, 1.036125794e-01f, -1.165434252e-02f, -1.009475440e-01f},
    {-3.671963513e-02f, -9.226396680e-02f, 1.084444206e-02f, 4.025313258e-02f, -5.601721630e-02f, -7.536873966e-02f, 6.535737216e-02f, 2.904681489e-02f, -8.002859354e-02f, -1.022057682e-01f, 8.217545599e-02f, 1.411244366e-02f},
    {-4.203986749e-02f, -3.717093542e-02f, 1.025373396e-02f, 4.829145223e-02f, -7.254900783e-02f, 6.050169840e-02f, 2.719880268e-02f, -1.002597362e-01f, 5.834000558e-02f, -6.983484328e-02f, -2.841607854e-02f, -4.812140763e-02f},
    {-7.415118814e-02f, 4.144998267e-02f, -3.727374971e-02f, -4.683441296e-02f, -6.583383679e-02f, 5.028641596e-02f, -5.800375715e-02f, -7.507801056e-02f, -5.327049643e-02f, 8.443550766e-02f, -8.128179610e-02f, 4.977864772e-02f},
    {1.068551987e-01f, 6.780399382e-02f, -3.125958145e-02f, 6.953598559e-02f, 5.328109115e-02f, 6.141110137e-02f, -1.245457679e-01f, 1.741692983e-02f, -7.112739235e-02f, -9.042736888e-02f, 5.105539039e-02f, -4.983044416e-02f},
    {7.328834385e-02f, 8.939628303e-02f, -1.473490242e-02f, 2.683147416e-02f, 7.845669240e-02f, 9.327312000e-03f, 6.140936166e-02f, -4.498164728e-02f, 3.864338994e-02f, -8.393393457e-02f, -5.774892122e-02f, -2.698560059e-02f},
    {4.429934919e-02f, -7.052607089e-02f, -5.722591653e-02f, 9.679394960e-02f, 7.110135257e-02f, -6.585692521e-03f, -1.154568791e-01f, -2.053562924e-02f, 4.377045855e-02f, -1.529430132e-02f, 9.667528421e-02f, 2.522401698e-02f},
    {1.032644436e-01f, 5.492699519e-02f, -7.714249194e-03f, -4.186366219e-03f, -4.787843302e-02f, -4.107210040e-02f, -3.595233709e-02f, 3.332069516e-02f, -3.374735592e-03f, -3.538185358e-02f, -4.729402065e-02f, -7.062564045e-02f},
    {-2.160490863e-02f, 5.858205631e-02f, -6.221741065e-02f, -1.708238944e-02f, -2.989313006e-02f, 4.520775005e-02f, 5.849290267e-02f, -6.045083702e-02f, -5.048155785e-02f, -2.308477275e-02f, 5.614030734e-02f, -3.391920030e-02f},
    {1.974857226e-02f, 5.200804025e-02f, 6.922978163e-02f, -4.510481656e-02f, -6.406300515e-02f, -7.489892840e-02f, 2.273798175e-02f, -3.693367168e-02f, 7.597076893e-02f, 1.742915437e-02f, 5.968989339e-03f, -5.914833769e-02f},
    {-6.173199043e-02f, 3.854812309e-02f, 2.095188387e-02f, 4.580578208e-02f, 6.376367062e-02f, 8.736092597e-02f, -1.054900140e-01f, 6.359390914e-02f, 2.237055078e-02f, -3.981773928e-02f, -7.268504798e-02f, -6.458768249e-02f},
    {-2.587284893e-02f, -1.021112874e-02f, -1.027529761e-01f, -5.904040113e-02f, 6.454799324e-02f, -2.619561739e-03f, 5.451044813e-02f, -7.643812150e-02f, 1.003355086e-01f, -1.847435534e-02f, -9.990297258e-02f, 8.981721476e-03f},
    {6.592158228e-02f, -1.738145202e-02f, -1.402606163e-02f, -7.321109623e-02f, -4.358502850e-02f, -3.356761113e-02f, -6.792568415e-02f, -2.295928542e-03f, 8.093569428e-02f, -9.777814150e-02f, -7.409469038e-02f, 7.309526671e-03f},
    {9.958864003e-02f, -4.324959219e-02f, -6.753605604e-02f, -2.718335390e-02f, -2.321706899e-02f, 7.772684842e-02f, -3.494049236e-02f, 1.363008376e-02f, 1.021947935e-01f, 6.176324189e-02f, 6.930091232e-02f, 7.083263993e-02f},
    {-5.169133469e-02f, -6.682403851e-03f, -1.993445680e-02f, -2.371858992e-02f, -1.328311395e-03f, 3.107826412e-02f, 4.266541917e-03f, 3.012883104e-02f, -1.541945990e-02f, -1.013303548e-01f, -6.873235106e-02f, 3.768140078e-02f},
    {3.612588346e-02f, -1.075216830e-01f, -7.847376168e-03f, 2.286543883e-02f, -5.857099220e-02f, 5.398087576e-02f, 7.217865437e-02f, -7.193844765e-02f, -5.204094108e-03f, -7.991481572e-02f, 5.577219278e-02f, 1.073453575e-02f},
    {8.350037038e-02f, 2.679419704e-02f, 3.260708600e-02f, -5.134873465e-02f, 9.607492015e-03f, -8.313132823e-02f, -1.087243389e-02f, -7.653212547e-02f, -4.102619737e-02f, 1.319521386e-02f, -4.678575322e-02f, -1.064066123e-02f},
    {1.097171232e-01f, 5.188484490e-02f, -1.337661147e-01f, -2.525659278e-02f, 4.817100242e-02f, -4.560799152e-02f, -5.316508561e-02f, -7.342290878e-02f, 8.816221729e-03f, 7.224901021e-02f, -8.801470697e-02f, 7.941517234e-02f},
    {-7.627406716e-02f, -9.511961043e-02f, -4.515207186e-02f, -5.337926373e-02f, 8.921825886e-02f, 1.280924231e-01f, -7.603622042e-03f, -3.409767896e-02f, -2.229431644e-02f, -4.503797367e-02f, 7.901251316e-02f, 3.534818813e-02f},
    {1.619388163e-02f, -2.095940337e-02f, 1.236304361e-02f, -7.473241538e-02f, 8.654595912e-02f, 1.099129394e-01f, 7.041878253e-02f, 2.430172265e-02f, 8.089151233e-02f, -1.206307020e-02f, 1.159002073e-02f, 5.144501477e-02f},
    {-4.467073828e-02f, -1.042621806e-01f, -1.155229472e-02f, 1.141034253e-02f, -1.046346687e-02f, -2.254373580e-02f, -1.546102948e-02f, -1.902059838e-02f, 2.145062946e-02f, 5.620300770e-02f, -7.191745937e-02f, 4.349115863e-02f},
    {-4.254148901e-02f, 1.693444513e-02f, -9.697056562e-02f, 6.944149733e-02f, 6.412567105e-03f, -1.565247402e-02f, 1.576295123e-02f, -7.251079194e-03f, 5.073640961e-03f, -4.802080616e-02f, 9.643092752e-02f, 7.490437478e-02f},
    {-2.673941851e-02f, 1.594307274e-02f, 1.535153389e-01f, 9.116341919e-02f, -4.193682224e-02f, 8.524173498e-02f, 1.376028657e-01f, 1.018805206e-01f, -2.656732686e-02f, -4.136639461e-02f, -2.162575023e-03f, -2.565099113e-02f},
    {-9.589519352e-02f, 1.247700211e-02f, 2.109771371e-01f, 6.557059288e-02f, 1.160635501e-01f, 4.114869516e-03f, -1.345208138e-01f, -1.066809669e-01f, -3.407272324e-02f, 3.820515051e-02f, -1.809460856e-02f, 4.807672650e-02f},
    {6.477991492e-02f, 1.875517890e-02f, -6.675478816e-02f, 9.099856019e-02f, 7.978513837e-02f, -1.107262820e-01f, -7.100357860e-02f, 1.951639354e-02f, -7.784843445e-02f, 5.909648165e-02f, 9.633325040e-03f, -3.588397801e-02f},
    {3.740920871e-02f, -7.751128078e-02f, -6.668252498e-02f, -4.864240438e-02f, 2.002469264e-02f, -1.781688817e-02f, 6.200836971e-02f, 6.425726227e-03f, 6.206747610e-03f, 5.053575709e-02f, -7.060698420e-02f, -1.258222908e-01f},
    {-4.366525635e-02f, 1.168373227e-02f, -5.724504963e-02f, 4.336087033e-02f, -7.692951709e-02f, 7.720879465e-02f, 2.795228176e-02f, -8.905350417e-02f, 1.297993818e-03f, -2.238160931e-02f, 1.141166314e-01f, 2.334823646e-02f},
    {7.620625198e-02f, 7.679153979e-02f, -5.043450277e-03f, -9.858100861e-02f, 2.586862445e-02f, -3.712571226e-03f, 5.304162391e-03f, -5.329217017e-02f, 6.228198111e-02f, 2.564118616e-02f, 1.095746756e-01f, 4.338357598e-02f},
    {6.912894547e-02f, -7.804501057e-02f, -2.348238043e-02f, 2.290537022e-02f, 1.172237694e-01f, 2.400579304e-02f, -8.393593878e-02f, -1.014518514e-01f, -5.958402902e-02f, -9.922984242e-02f, 9.551433474e-02f, 7.725916058e-02f},
    {-5.474045500e-02f, -2.615956403e-02f, 8.084543049e-02f, 2.569989488e-02f, -1.439993531e-01f, 3.531618416e-02f, -3.602736443e-02f, -5.761942640e-02f, 1.064035669e-01f, -5.771205574e-02f, 7.622294873e-02f, -2.620828524e-02f},
    {-7.924386859e-02f, -6.909123063e-02f, 1.944733560e-01f, -2.714733407e-02f, 1.689435728e-02f, 5.823362619e-02f, 1.183312461e-01f, -3.852639720e-02f, -3.884340450e-02f, -5.252807215e-02f, -1.241949480e-02f, 1.856952906e-02f},
    {-7.737544365e-03f, 7.020259649e-02f, -4.513267428e-02f, -3.104011714e-02f, 4.136797413e-02f, -6.881715357e-02f, -5.305166543e-02f, -1.092618257e-01f, 7.236550003e-02f, 9.148370475e-02f, 5.436690524e-02f, 6.322648376e-02f},
    {-3.136237711e-02f, -1.116654128e-01f, 7.508577406e-02f, 1.760274917e-01f, -7.725661993e-02f, -1.625471413e-01f, -4.651727155e-02f, 7.986049354e-02f, 1.982700452e-02f, 6.458058488e-03f, 4.540835321e-02f, 4.075567797e-02f},
    {-7.758203894e-03f, -1.197758168e-01f, 1.727451198e-02f, 1.218008250e-01f, -3.089185338e-03f, -6.162820756e-02f, 9.507970512e-02f, 4.787458573e-03f, 5.645652115e-02f, 6.996957958e-02f, 6.364320219e-02f, -7.034283876e-02f},
    {-5.532072484e-02f, -1.163981259e-01f, -9.405240417e-03f, 2.620410174e-02f, 4.845224321e-02f, 7.228109241e-02f, -1.277000923e-02f, 2.943725139e-02f, 2.182007208e-02f, -1.137182787e-01f, 4.329576716e-02f, 1.118740439e-01f},
    {-4.145437106e-02f, -2.142208442e-02f, 1.349546164e-01f, -2.258368954e-02f, -1.035711542e-01f, -5.387377366e-02f, 8.177747950e-04f, -3.377646580e-02f, 2.313724533e-02f, 5.719495472e-03f, 7.988122106e-02f, 9.873450547e-02f},
    {7.938715816e-02f, 3.612916172e-02f, 2.572954632e-02f, 7.992127538e-02f, 2.209537104e-02f, -5.572597496e-03f, 1.100196317e-01f, 4.956798628e-02f, 1.972534228e-04f, 5.545178056e-02f, 1.179223359e-01f, 1.673892699e-02f},
    {7.804221660e-02f, -6.436993834e-03f, -2.627555653e-02f, 4.992419854e-02f, 1.874393085e-03f, -1.156033501e-01f, -1.202787459e-01f, -6.840523332e-02f, -1.838301308e-02f, -4.513878375e-02f, 5.823279545e-02f, 3.723432124e-02f},
    {1.856230572e-02f, -8.880153298e-02f, 9.908224642e-02f, -3.693960980e-02f, -7.508977782e-03f, 1.729241163e-01f, 6.244158745e-02f, -5.378908664e-02f, -1.151507869e-01f, 2.664630674e-02f, -2.953564562e-02f, 8.809780329e-02f},
    {1.231370270e-01f, -7.142227888e-02f, -5.049496144e-02f, -8.289420605e-02f, -1.012435332e-01f, 1.188979670e-02f, -1.622415520e-02f, -4.830677807e-02f, -6.079408526e-02f, -8.007197827e-02f, -9.557347745e-02f, 7.286915183e-02f},
    {-1.552790403e-02f, 1.155318022e-01f, -1.112488732e-01f, -1.455869526e-01f, -2.217324823e-02f, -2.395235002e-02f, -1.172210202e-01f, -1.343685538e-01f, 1.143651921e-02f, -8.021292090e-02f, 1.493668277e-02f, 7.939075679e-02f},
    {-7.394552976e-02f, 4.905668646e-02f, 4.180612788e-02f, 3.521073610e-02f, 8.714754134e-02f, 5.923961475e-02f, 9.663814306e-02f, -8.845981210e-03f, 6.043270696e-03f, 3.952773288e-02f, -1.440118998e-02f, -1.016283110e-01f},
    {7.696694881e-02f, -1.448704451e-01f, -3.628004715e-02f, -1.075921394e-02f, -1.784596741e-01f, 5.374075845e-02f, -2.767728642e-02f, 2.547014132e-02f, -7.298063021e-03f, 6.853920966e-02f, -2.696178667e-02f, 1.409171969e-01f},
    {6.116276234e-02f, -1.096806452e-01f, 5.375824496e-02f, 7.895617187e-02f, 4.820359498e-02f, 2.693770267e-02f, 1.010051183e-02f, 5.210035667e-02f, -3.658446297e-02f, -8.982079476e-02f, -2.584418096e-02f, 1.137969792e-01f},
    {-4.669657350e-02f, 1.354796533e-02f, 1.670624688e-02f, 4.460072890e-02f, -8.479148895e-02f, 1.699472778e-02f, 4.730070010e-02f, 8.615874499e-02f, -1.211172808e-02f, -3.218117356e-02f, 4.723487422e-02f, -3.101358935e-02f},
    {5.219208077e-02f, -4.387220368e-02f, -1.037354469e-01f, -1.576946350e-03f, 8.674031496e-02f, 1.236818582e-01f, 4.468509182e-02f, -1.155527830e-01f, -4.602380097e-02f, -9.441448748e-02f, -2.898603491e-02f, 1.325449497e-01f},
    {5.236576870e-02f, -9.183067828e-02f, -5.069295317e-02f, 1.403655857e-01f, -1.300183535e-01f, -1.470322162e-02f, -3.400710598e-02f, 3.044771031e-02f, -6.297694147e-02f, -9.047623724e-02f, -5.507375672e-02f, 2.609849907e-02f},
    {9.502507001e-02f, -2.218898572e-02f, -1.104540303e-01f, 1.148075685e-01f, -4.346611723e-02f, -7.809290290e-02f, -9.172274917e-02f, 2.428813130e-01f, 8.685126901e-02f, 5.760841072e-03f, -8.099258691e-02f, 8.725546300e-03f},
    {1.490968168e-01f, -8.745495230e-02f, 3.327844897e-04f, 2.137120254e-02f, -1.443572938e-01f, -6.754270196e-02f, 2.858468145e-02f, 2.109058574e-02f, 1.779745519e-02f, -1.001368836e-01f, -3.412304446e-02f, 8.412456512e-02f},
    {4.191914946e-02f, -3.241398185e-02f, 5.512513593e-02f, -5.781067163e-02f, 1.726851100e-03f, -6.850768626e-02f, -8.576891571e-02f, -8.190008253e-02f, -6.328351051e-02f, -9.774745256e-02f, -7.694944274e-03f, 3.382948413e-02f},
    {6.666716188e-02f, -1.095712781e-01f, 9.075696021e-02f, 4.147553816e-02f, -1.012728065e-01f, 1.716963714e-03f, -6.321731955e-02f, 2.033746056e-02f, 8.337513357e-02f, 5.408063903e-02f, -6.831492484e-02f, -5.822810158e-02f},
    {-8.024414629e-02f, -1.138931364e-01f, 1.928705722e-02f, -2.057432896e-03f, 1.135938615e-01f, 2.206893405e-04f, 4.262891412e-02f, -8.752143383e-02f, -1.618934423e-02f, 9.574063122e-03f, 7.216094434e-02f, 3.540422022e-02f},
    {-6.865846366e-02f, -2.607969195e-02f, 1.147338897e-01f, -1.389148645e-02f, 9.476122260e-02f, 1.111153364e-01f, 9.918951988e-02f, 1.072579809e-02f, -7.517333329e-02f, 2.895291429e-03f, 3.933069855e-02f, -9.871091694e-02f},
    {8.373609185e-02f, 6.616983563e-02f, -1.263051480e-01f, 8.697441220e-02f, -4.638300277e-03f, -1.109286323e-01f, 1.121462083e-05f, 1.855438016e-02f, -2.354835719e-02f, -6.827610731e-02f, -1.255820841e-01f, 1.662172675e-01f},
    {7.713361830e-02f, 1.103858277e-02f, 9.732891619e-02f, 2.879133075e-02f, 3.970439360e-02f, 1.125000492e-01f, -4.667681828e-02f, -1.014026534e-02f, -1.705452614e-02f, -4.887533374e-03f, 6.708960515e-03f, -4.628573358e-02f},
    {-8.353220671e-02f, -3.327973932e-02f, 1.123165339e-01f, 3.605096787e-02f, 9.027321637e-02f, -9.774895012e-02f, 2.177629806e-02f, -4.547155276e-02f, -3.596050665e-02f, -3.096642904e-02f, -1.225955635e-01f, -9.531430155e-02f},
    {-4.804110527e-02f, -5.582470819e-02f, -5.213916674e-02f, -4.571187124e-02f, 2.596423589e-02f, 3.104309179e-02f, 5.452095531e-03f, 6.401949376e-02f, 4.739965498e-02f, -5.143310875e-02f, -6.356267724e-03f, -1.746479273e-01f},
    {-1.014798582e-01f, -4.788139462e-02f, 5.804947391e-02f, -9.394643456e-02f, 9.232030064e-02f, 1.323812306e-01f, -8.399792761e-02f, -5.020324141e-02f, 3.494313732e-02f, -9.710320830e-02f, -4.874738678e-02f, -3.408317268e-02f},
    {-1.198498458e-01f, -1.753233373e-02f, 2.002962381e-01f, -7.271978259e-02f, 8.422242105e-02f, 7.529143989e-02f, 1.299777031e-01f, -1.760344952e-02f, -8.054123074e-02f, 8.932864666e-02f, -8.361900225e-03f, 7.961869985e-02f},
    {-1.068449020e-01f, 4.696211591e-02f, -4.952384531e-02f, -2.526038885e-02f, 1.115548164e-01f, 1.165421009e-01f, -5.010207742e-02f, -7.713500410e-02f, 2.739168005e-03f, -8.582991362e-02f, 7.308107615e-02f, -1.056753546e-01f},
    {-3.502128646e-02f, -6.830170006e-02f, -2.890501730e-02f, -3.616908193e-02f, 7.120831311e-02f, -1.699328609e-02f, -1.496644970e-02f, -3.078312427e-02f, 8.910129219e-02f, -4.680628330e-02f, 1.206569374e-01f, 6.316653639e-02f},
    {-5.433818325e-02f, 3.363041580e-02f, 7.280733553e-04f, -7.065255940e-02f, -4.854178429e-02f, -9.948696941e-03f, 2.749138512e-02f, 4.468913004e-02f, 7.806577533e-02f, 1.181232091e-02f, -4.738502577e-02f, -1.207262371e-02f},
    {6.341666728e-02f, 6.481158733e-02f, 2.382325009e-02f, -4.761546850e-02f, 8.794293553e-02f, 3.299749224e-03f, 3.042687289e-02f, 4.643170163e-02f, -5.013217032e-02f, 7.184285205e-03f, 3.444809094e-02f, -9.934969246e-03f},
    {3.198848665e-02f, 1.431395411e-01f, -3.573558852e-02f, 2.658821642e-02f, 1.123349071e-01f, 8.751328103e-03f, 4.625349492e-02f, -3.537281603e-02f, -4.657308012e-02f, 2.509871032e-03f, 4.222305119e-02f, -1.072289720e-01f},
    {-6.446605176e-02f, -3.539475799e-02f, -1.429059952e-01f, 1.002416387e-02f, -9.957264364e-02f, 1.108906493e-01f, -6.204755232e-02f, -1.355304569e-01f, 1.228654832e-01f, 6.381202489e-02f, -3.692693636e-02f, 6.254012138e-02f},
    {-9.498997033e-02f, 8.911518008e-02f, -3.377987817e-02f, -8.451846987e-02f, -4.184854403e-02f, 3.083718766e-04f, -5.843524262e-02f, 8.393964916e-02f, 2.874037810e-02f, -6.512102485e-02f, 4.732087627e-02f, 6.459049135e-02f},
    {-4.950565472e-02f, -8.840426803e-02f, 3.748473525e-02f, 1.112445667e-01f, -2.775472775e-02f, -2.433123067e-02f, 1.689150184e-01f, -6.264123321e-02f, 2.691358700e-02f, -7.294794172e-02f, 2.794695785e-03f, 4.978473485e-02f},
    {-4.002176225e-02f, -7.450091094e-02f, -3.821799159e-02f, -4.032794014e-02f, 7.606710494e-02f, -1.592562534e-02f, -3.906281292e-02f, 8.754289895e-02f, -1.520994119e-02f, 4.510012642e-02f, 6.954243779e-02f, -6.057450175e-02f},
    {-8.995799720e-02f, 4.981710389e-02f, -4.457077943e-03f, -1.826489158e-02f, 4.259070382e-02f, 1.075980663e-01f, 5.382294580e-02f, -3.537347168e-02f, -6.886916608e-02f, -9.753551334e-02f, -3.155118600e-02f, 1.725977659e-02f},
    {-8.090920746e-02f, 8.586253226e-02f, -1.051616371e-01f, -2.522795834e-02f, -1.734139025e-02f, 5.583080277e-02f, -8.969870955e-02f, 1.456781104e-02f, -1.140661631e-02f, -3.923448548e-02f, 2.789571695e-02f, 3.642962873e-02f},
    {8.898784965e-02f, -3.241431341e-02f, -2.737381123e-02f, 7.638891786e-02f, 4.733054340e-02f, 8.971395344e-02f, -1.704510860e-02f, -8.849435300e-02f, -1.213568822e-02f, 5.752852187e-02f, 2.714867890e-02f, -6.215202063e-02f},
    {-1.842051931e-02f, -8.947929740e-02f, 1.935918480e-01f, -5.688754469e-02f, -3.449056670e-02f, 2.235638350e-02f, 2.086868435e-01f, 1.795882359e-02f, -1.016735286e-02f, 7.107403129e-02f, 8.599250019e-02f, -6.774963439e-02f},
    {-2.919594385e-02f, -9.091987461e-02f, -1.571149938e-02f, 7.799961418e-02f, 1.703875512e-02f, 9.415760636e-02f, -1.102760136e-01f, 2.865646966e-02f, 6.873036176e-02f, 3.059522249e-02f, 2.091444656e-02f, 1.213157102e-01f},
    {8.223419636e-02f, -3.455793858e-02f, -5.474954471e-02f, 5.930449814e-02f, -4.625172541e-02f, 3.707662225e-02f, 6.707592309e-02f, 6.519190967e-02f, 8.791229129e-02f, 5.158016086e-02f, 7.759952545e-02f, -1.821876154e-03f},
    {7.888938487e-02f, -1.595820114e-02f, 1.104996130e-01f, -9.575833566e-03f, 2.587343566e-02f, 1.213646866e-02f, 7.719831914e-02f, 3.550199792e-02f, 1.337878592e-02f, -4.635911435e-02f, 4.464910924e-02f, -7.501058280e-02f},
    {3.252542764e-02f, -6.441427022e-02f, -5.810804293e-02f, 2.887114324e-02f, -1.701845974e-02f, 8.407874266e-04f, -8.202232420e-02f, 8.639691770e-02f, -7.248916477e-02f, 7.671442628e-02f, 5.574632809e-02f, -8.903676271e-02f},
    {-8.028872311e-02f, 9.114663303e-02f, 4.986640811e-02f, -9.858161956e-02f, -6.327547878e-02f, 2.898821980e-02f, 5.345725641e-02f, 6.292111427e-02f, -7.203422487e-02f, 8.236664534e-02f, 6.674718857e-02f, 5.786217004e-02f},
    {-5.888386071e-02f, 7.085512578e-02f, -4.626621306e-02f, 5.911264196e-02f, -1.278533340e-01f, 4.687599093e-02f, -1.292873919e-01f, 9.330422617e-03f, 8.007688820e-02f, 5.118204281e-02f, 4.666334763e-02f, -5.965825170e-02f},
    {3.894801065e-02f, 7.719115913e-02f, 2.437999099e-02f, 5.523221940e-02f, -1.136350445e-02f, -7.326827943e-02f, -1.333315969e-01f, 3.284554556e-02f, -4.439852759e-02f, 7.859011181e-03f, -1.209742874e-01f, 1.045894623e-01f},
    {-3.647896647e-02f, 3.181580082e-02f, 1.007962972e-01f, 9.599073231e-02f, -2.592880465e-02f, 4.915891914e-04f, 7.429882884e-02f, 2.024760470e-02f, -3.797787428e-02f, -8.122003078e-02f, -5.869915709e-02f, -4.148252483e-04f},
    {8.651971817e-02f, -4.642369226e-02f, -1.462538727e-02f, 3.148601949e-02f, -2.302504517e-02f, 4.855977371e-02f, -5.205809325e-02f, -5.750577524e-02f, -6.539595127e-02f, -2.307874896e-02f, -6.700976938e-02f, -2.625479177e-02f},
    {8.909172565e-02f, -4.968619347e-02f, 8.172630519e-02f, 7.602557540e-02f, 7.519102842e-02f, 6.712959148e-03f, 9.513166547e-02f, 3.434367850e-02f, -3.476360813e-02f, 5.333722755e-02f, -2.232846431e-02f, -8.965163678e-02f},
    {7.114286721e-02f, -6.948816776e-02f, 4.598097876e-03f, -6.879253685e-02f, 1.185425837e-02f, -2.867373824e-02f, 3.681632876e-02f, -1.106140092e-01f, -9.326235950e-02f, -5.909648538e-02f, -1.037611812e-01f, -5.449289456e-02f},
    {-2.477703802e-02f, 9.569383413e-02f, -2.449980192e-02f, 2.872733958e-02f, 1.467293710e-03f, -2.408122271e-02f, -4.187559709e-02f, 7.979536802e-02f, 9.485873580e-02f, -1.023336723e-01f, -3.156793490e-02f, 6.638135761e-02f},
    {4.949574172e-02f, -4.817605391e-02f, -7.652425766e-02f, 3.025108203e-02f, 3.621233627e-02f, -1.004495174e-01f, -7.094955444e-02f, -3.483342007e-02f, 2.819372574e-03f, 9.403518587e-02f, -7.716350257e-02f, -1.199280377e-02f},
    {-8.691877872e-02f, 6.759013981e-02f, -2.422326058e-02f, -7.117490470e-02f, 1.229001582e-02f, -4.846816510e-02f, 5.663720891e-02f, -3.776758164e-02f, 5.849854648e-02f, -6.685718149e-02f, 1.183282137e-01f, -1.160567552e-01f},
    {4.695454240e-02f, -5.064009503e-02f, 1.075052004e-02f, 3.704308718e-02f, 2.988943830e-02f, -4.140554927e-03f, 1.145058647e-01f, 8.919087797e-02f, -1.008698419e-01f, -6.967657804e-02f, -6.764037162e-02f, -1.081440598e-01f},
    {-6.109647453e-03f, 5.756491423e-02f, -1.149675995e-01f, 1.281257533e-02f, 5.106715113e-02f, 8.481260389e-02f, 7.418470923e-03f, -6.585365534e-02f, -4.554172978e-02f, -4.904677346e-02f, -2.437930927e-02f, 4.020433873e-02f},
    {-9.230662137e-02f, -5.495791882e-02f, -5.512805283e-02f, 2.215887216e-04f, 8.241959661e-02f, 4.876597971e-02f, -8.000835776e-02f, -3.831546381e-02f, 5.407514051e-03f, -2.013598569e-03f, 1.910762861e-02f, -3.443441167e-02f},
    {-9.917721897e-02f, -3.903036006e-03f, 4.327110946e-02f, -1.590220816e-02f, -5.563642830e-03f, 8.690240234e-02f, 7.866866887e-03f, -7.527823001e-02f, -8.617433161e-02f, -1.098887250e-01f, 3.768195584e-02f, -7.286233455e-02f},
    {-7.060351782e-03f, 2.892692760e-02f, 8.474567533e-02f, 8.644085377e-03f, -2.497330122e-02f, 6.451937370e-03f, 9.040604532e-02f, 3.258377686e-02f, 1.964892447e-02f, -2.107308246e-02f, 9.417539835e-02f, -7.029917836e-02f},
    {-7.310994901e-03f, -1.002582684e-01f, 1.264378726e-01f, -3.231222928e-02f, -6.512883306e-02f, 1.070829928e-01f, 6.942691654e-02f, -1.756377704e-02f, -1.194734359e-03f, -3.065593727e-02f, -5.675524473e-03f, -4.624200240e-02f},
    {-6.042920053e-02f, 1.007678639e-02f, 3.957666457e-02f, -2.803542279e-02f, 1.099176984e-02f, 5.307476968e-02f, 4.923930764e-02f, -4.409803078e-02f, -5.321174115e-02f, -8.393118042e-04f, 5.978722125e-02f, 6.833980978e-02f},
    {-1.548582572e-03f, -5.583214015e-02f, 3.138120472e-02f, 5.064495280e-02f, -6.980545074e-02f, -5.177986994e-02f, 5.361785647e-03f, 3.676754609e-02f, 5.986472964e-02f, 4.775263835e-03f, 7.318573445e-02f, -1.973615214e-02f},
    {-7.410057634e-02f, 1.191876363e-03f, 5.653474852e-02f, 1.741757803e-02f, -6.401866674e-02f, 6.485197693e-02f, 4.962636158e-02f, 4.557142034e-03f, -5.896348879e-02f, 5.479991809e-02f, -7.309428602e-02f, -4.955410585e-02f},
    {1.107519306e-02f, 5.661362782e-02f, 6.675981730e-02f, -7.947760820e-02f, 4.571473598e-02f, 2.131003141e-02f, 3.779692203e-02f, 7.841992378e-02f, -9.958054125e-02f, -7.360337675e-02f, 2.439237945e-02f, -5.077739805e-02f},
    {-1.193296835e-01f, -3.293586895e-02f, 6.425829232e-02f, -1.103445794e-02f, -1.095050499e-01f, 1.803998463e-02f, -5.610338226e-02f, -1.033554040e-02f, 1.216629799e-02f, -3.305570036e-02f, -4.777597263e-03f, 4.183670878e-02f},
    {-9.825635701e-02f, -1.831781492e-02f, -4.462224618e-02f, 2.940193750e-02f, -1.171448678e-01f, 8.250822872e-02f, -4.344111308e-02f, -1.487588435e-01f, -5.345308781e-02f, 1.491506211e-02f, -4.591677338e-03f, 3.062390909e-02f},
    {-5.557755753e-02f, -8.964463323e-02f, 9.090182185e-02f, -8.782790601e-02f, 5.756412074e-02f, -7.917660289e-03f, 4.664429277e-02f, -7.900854573e-03f, 7.338496298e-02f, -8.078904450e-02f, -3.859126568e-02f, -4.402355850e-02f},
    {-1.482570916e-01f, -4.739933461e-02f, 2.481565997e-02f, 4.323124141e-02f, -5.763489008e-02f, 7.033586502e-02f, -4.857945070e-02f, -3.616631031e-02f, -1.922965609e-02f, 1.490057446e-02f, 9.892377257e-02f, 5.654013529e-02f},
    {-1.394374967e-01f, -9.399938583e-02f, 1.389326304e-01f, 6.974402815e-02f, -6.110162288e-02f, 8.626649529e-02f, 4.261837155e-02f, -3.907330800e-03f, -4.296851531e-02f, 9.887424856e-02f, 2.235320397e-03f, -8.529829234e-02f},
    {7.781893760e-02f, 3.617823496e-02f, 4.739234969e-02f, -2.915780433e-02f, 2.386100031e-02f, 4.051593691e-02f, 4.328861833e-02f, -4.046445247e-04f, -5.899605900e-02f, -6.142190471e-02f, 8.741899580e-02f, 1.523796376e-02f},
    {6.636038423e-02f, -1.657531969e-02f, 1.176002473e-01f, -6.178979203e-02f, 5.563361570e-02f, 6.475383043e-02f, -4.117874894e-03f, -7.002386451e-02f, -1.016869545e-01f, 3.418334201e-02f, 3.822654858e-02f, -7.954264432e-02f},
    {-4.654059932e-02f, 2.698777989e-02f, -7.300183643e-03f, -1.123550385e-01f, -2.657088265e-02f, 2.672515437e-02f, 1.066813022e-01f, -4.049756005e-02f, -5.685826391e-02f, -5.927068740e-02f, 1.750026271e-02f, 4.181887489e-03f},
    {-3.864374384e-02f, -7.324859500e-02f, 3.071119450e-02f, 6.146007776e-02f, -9.809958190e-02f, 4.889205098e-02f, 4.122788459e-02f, -8.808392286e-02f, 4.952578992e-02f, 1.377122197e-02f, -1.718418114e-02f, -5.213596299e-02f},
    {-2.142317779e-02f, -4.008474946e-02f, 2.680373564e-02f, -1.124513298e-01f, 2.510350943e-02f, -1.134713739e-01f, 1.346102078e-02f, -4.324561730e-02f, 5.398896337e-02f, 9.158048779e-02f, -7.175301760e-02f, 5.628418922e-02f},
    {-1.508994494e-02f, 1.813636720e-02f, 3.047443926e-02f, 4.664325714e-02f, -5.840795860e-02f, -4.551171139e-02f, 6.458905060e-03f, -1.481857002e-01f, -8.417209983e-02f, -2.834384888e-02f, 7.615911216e-02f, 3.741870821e-02f},
    {-4.100475833e-02f, 4.111668468e-02f, -6.477880478e-02f, -3.692841530e-02f, 4.011392593e-02f, -1.052740589e-01f, -3.112302348e-02f, -3.137891740e-02f, -5.778203160e-02f, 6.875034422e-02f, -2.175921760e-02f, 7.963677496e-02f},
    {-6.455275416e-02f, -5.270946771e-03f, -3.388515115e-02f, -1.135115977e-02f, -6.535115838e-02f, 4.781151935e-02f, -1.315668877e-02f, -4.694746435e-02f, 9.881889448e-03f, -9.923522174e-02f, -4.069085047e-02f, 4.482798744e-03f},
    {4.093785584e-02f, 1.757126674e-02f, -1.671267301e-02f, -1.450378597e-01f, -3.991214558e-02f, -4.804047197e-02f, -1.019505858e-01f, -4.133201763e-02f, -1.479945779e-01f, -6.299509108e-02f, -1.071870327e-01f, -1.091521606e-01f},
    {4.092932492e-02f, -4.538808763e-02f, -7.698131353e-02f, -7.579495758e-02f, 3.929863125e-02f, 2.894040942e-02f, 7.700975984e-02f, 3.907443956e-03f, -9.014426172e-02f, -4.122129641e-03f, -1.321812533e-02f, 8.870477229e-02f},
    {3.085886873e-02f, -7.487262785e-02f, 8.466383070e-02f, 3.738178685e-02f, -2.309850231e-02f, -1.213812083e-01f, -6.383829564e-02f, 1.202453598e-01f, -1.418649852e-01f, -2.384221926e-02f, -1.063894033e-01f, 3.616960347e-02f},
    {4.061009735e-02f, -7.256300747e-02f, -8.720270358e-03f, -2.492619678e-02f, -3.841093183e-02f, -3.437308967e-02f, -1.114721522e-01f, -3.928197175e-02f, -4.396504257e-03f, -5.468096957e-02f, -2.439855039e-02f, -1.029965803e-01f},
    {-2.053190023e-02f, -1.359390281e-02f, 8.157233149e-02f, -6.997697800e-02f, 1.071831137e-01f, 5.248946697e-02f, -2.299791574e-02f, -1.930430904e-02f, -9.385713935e-02f, -2.665712871e-02f, -9.465618432e-02f, -1.462897658e-02f},
    {1.067698095e-02f, 5.914872512e-02f, 3.781973617e-03f, -2.254175022e-02f, -2.216367051e-02f, -5.449578166e-02f, 1.132325642e-02f, 6.651399285e-02f, -6.197296456e-02f, -1.142713893e-02f, -1.427087560e-02f, -4.935253412e-03f},
    {-4.286930338e-02f, -9.189739823e-03f, -5.779922009e-03f, -1.208881941e-02f, 2.194919437e-02f, 4.069127515e-02f, -7.801450044e-02f, -1.698929816e-02f, -1.023628563e-01f, 9.193084389e-02f, -6.590173393e-02f, 9.294376522e-02f},
    {1.564316824e-02f, 1.568820328e-02f, 8.198411763e-02f, -4.978020862e-02f, 6.739740074e-02f, -8.178686351e-02f, -4.846378043e-02f, 1.511809975e-01f, -8.255337598e-04f, 1.066487953e-01f, -4.547073692e-02f, -6.456603762e-03f},
    {7.197085023e-02f, -1.256796299e-03f, 8.888931572e-02f, -1.517700106e-01f, 7.805486023e-02f, 1.093463786e-02f, -7.144466788e-02f, 5.217519030e-02f, -1.044717282e-01f, 3.757014871e-02f, -1.240172684e-01f, -2.925175242e-02f},
    {7.095228136e-02f, -2.199881710e-02f, -7.598044723e-02f, -1.045098603e-01f, -5.332727730e-02f, -4.252253100e-02f, -2.508572675e-02f, -5.952089280e-02f, -4.559884220e-02f, -7.740680128e-02f, -2.797004580e-02f, 3.699192405e-02f},
    {2.963824011e-02f, 7.667296380e-02f, -3.328940645e-02f, 5.745011568e-02f, -3.506872803e-02f, -1.021519378e-01f, -5.819132179e-02f, -8.187661879e-03f, 1.914531365e-02f, -1.266784221e-02f, -1.112402231e-01f, 3.792088106e-02f},
    {1.454587579e-01f, -4.405170307e-02f, -9.659838676e-02f, -1.137431618e-02f, 3.147335351e-02f, -9.560771286e-02f, -8.088386804e-02f, -1.495453436e-02f, -7.695155218e-03f, -1.196574070e-03f, -1.175409332e-01f, -3.943276405e-02f},
    {2.376591600e-02f, 1.883835346e-02f, -1.273298562e-01f, -5.699288473e-02f, -9.062262625e-02f, 8.268003166e-02f, -3.249770030e-02f, 2.911171131e-02f, -5.541101098e-02f, 2.853846177e-03f, -1.308062673e-01f, 1.501565613e-02f},
    {-1.462280378e-02f, -2.040694840e-02f, -7.133746147e-02f, -4.027125612e-02f, -1.202678494e-02f, 2.552184463e-02f, 2.260615118e-02f, 3.902501613e-02f, 4.183117300e-02f, -1.104711443e-01f, -6.453816593e-02f, -5.044635385e-03f},
    {1.832918637e-02f, 1.205055341e-01f, -4.353374988e-02f, -5.979278311e-02f, 9.416038170e-03f, 6.090532616e-02f, 4.909908865e-03f, -2.408676222e-02f, -1.281238049e-01f, -2.003042027e-02f, -1.349887401e-01f, -1.666438393e-02f},
    {5.396506190e-02f, 8.901553228e-03f, 6.505704671e-02f, 7.263338566e-02f, 4.049629570e-05f, 1.907907985e-02f, 3.881398588e-02f, 1.375279725e-01f, -6.414157897e-02f, -6.229211017e-02f, -2.885625139e-02f, 3.218743205e-02f},
    {1.504549384e-01f, -3.161045536e-02f, -4.863270558e-03f, 1.236475538e-02f, 3.950878978e-02f, 3.607054800e-02f, -1.359693706e-02f, -7.307781279e-02f, 5.768399313e-02f, 2.430903912e-02f, -6.001769379e-02f, 7.254304737e-02f},
    {7.413023710e-02f, -1.463923603e-02f, 1.214042976e-01f, 1.965787821e-02f, 8.871188015e-02f, -9.206154197e-02f, -7.229172438e-02f, 8.467425406e-02f, 1.633448526e-02f, 4.684071988e-02f, 7.956612110e-02f, -1.270159334e-01f},
    {2.121195756e-02f, 3.029095940e-02f, 1.465432462e-03f, -1.174141839e-01f, -5.128368363e-02f, 5.357076228e-02f, -6.646370143e-02f, 4.333129153e-02f, -9.501844645e-03f, 6.272133440e-02f, 4.948132858e-02f, 6.007056683e-02f},
    {1.023751870e-01f, -6.406448781e-02f, -3.637997806e-02f, 1.032304484e-02f, -3.682721034e-02f, 4.951404035e-02f, -1.650593579e-01f, -3.356207535e-02f, -6.141832471e-02f, 7.389496267e-02f, -5.259986967e-02f, 4.158266634e-02f},
    {2.881448157e-02f, -1.566376071e-03f, -6.759154052e-02f, 3.253680095e-02f, -1.528534293e-01f, -4.723861348e-03f, -5.374395847e-02f, 1.171284169e-01f, 6.627552956e-02f, -8.550819010e-02f, 1.807446592e-02f, -4.868997727e-03f},
    {2.173202671e-02f, -8.333917707e-02f, -7.082053460e-03f, -9.977474064e-02f, -9.274583310e-02f, -9.308055043e-02f, 5.650490895e-02f, 7.540369779e-02f, -1.138631850e-01f, -3.221425926e-03f, -1.170521751e-01f, 1.408781949e-02f},
    {5.886088312e-02f, -1.267741174e-01f, -1.151512489e-01f, 7.460962981e-02f, -1.973155588e-01f, -1.011501625e-01f, -3.978920355e-02f, 6.624974310e-02f, -3.565863520e-02f, -4.834185541e-02f, -2.657623030e-02f, 8.001756668e-02f},
    {9.795946628e-02f, -1.489560306e-02f, -6.409210712e-02f, -6.498236209e-02f, -1.062733904e-01f, -4.426236823e-02f, -1.463205367e-01f, 1.086945683e-01f, 4.379595816e-02f, 4.033223167e-02f, -2.645617723e-02f, 1.452011913e-01f},
    {4.173780233e-02f, 1.389957406e-02f, -3.012769669e-02f, -2.308649011e-02f, -5.868304893e-02f, 8.428866416e-02f, -6.153080612e-02f, 1.193302800e-03f, 3.089966066e-02f, -7.560619712e-02f, -4.093963653e-02f, 5.332466960e-02f},
    {8.661873639e-02f, 7.677614223e-03f, -3.642764315e-02f, 3.892064467e-02f, -5.586616322e-02f, -5.883090943e-02f, 1.322679818e-01f, 2.282185946e-03f, 1.027397215e-01f, 7.630008459e-02f, 6.643394381e-02f, -3.838280588e-02f},
    {1.252688468e-01f, -7.571887225e-02f, -4.826964438e-02f, -8.945389837e-02f, 2.755102888e-02f, 4.370189086e-02f, -1.998961717e-02f, 3.689413145e-02f, 5.784928426e-02f, 1.929742098e-02f, -1.448997110e-01f, -3.730545053e-03f},
    {-1.700949855e-02f, -1.086078286e-01f, -3.868231550e-02f, 9.426435828e-02f, -1.314559430e-01f, 4.035299644e-03f, -7.879532874e-03f, 7.237028331e-02f, -3.127514571e-02f, -8.537665755e-02f, -1.070237979e-01f, 2.697619796e-02f},
    {2.937665582e-02f, -3.346614167e-02f, -4.336540587e-03f, 3.844165057e-02f, -1.230466738e-02f, -9.330997616e-02f, -2.299303561e-02f, 4.005060345e-02f, -6.108993292e-02f, -9.170635045e-02f, -6.656896323e-03f, 3.567881882e-02f},
    {7.327219471e-03f, -2.056426741e-02f, -5.196675286e-02f, -1.032691523e-01f, 4.439987987e-02f, -1.325616892e-02f, -1.335989684e-02f, -8.045141585e-03f, -2.948436327e-02f, -7.784296572e-02f, -3.120519593e-02f, -2.680351213e-02f},
    {-2.093831776e-03f, 1.173353791e-01f, 5.944709480e-02f, 1.380256712e-01f, 8.782421798e-02f, -2.207226306e-02f, -4.831970856e-02f, 8.069678396e-02f, 2.514751628e-02f, 5.269679055e-02f, -9.917403013e-02f, 4.234468937e-02f},
    {9.889844805e-02f, 1.361751091e-02f, 8.581360430e-02f, -3.297095001e-02f, 6.761913002e-02f, -1.170957834e-01f, 1.286253682e-03f, 1.398365498e-01f, -1.497904537e-03f, -7.384587079e-02f, -8.192254603e-02f, -8.018641919e-02f},
    {5.552992597e-02f, 4.577860981e-02f, -6.829457730e-02f, 7.251610607e-02f, 1.973494515e-02f, -3.423752636e-02f, -6.308811903e-02f, -5.469264463e-02f, 1.516804006e-02f, -5.253610015e-02f, -1.847573556e-02f, 2.739609778e-02f},
    {-3.685786948e-02f, -2.056327835e-02f, 2.955690399e-02f, -6.753260642e-02f, -9.328486770e-02f, 3.911843896e-02f, 2.869173512e-02f, 1.534055267e-02f, -1.199560538e-01f, -4.297389090e-02f, 1.247460768e-01f, 1.583698206e-02f},
    {-3.737265244e-02f, -1.147535816e-01f, 5.257881805e-02f, 1.111716554e-01f, 4.889697954e-02f, 6.135606766e-02f, -4.841354210e-03f, 1.459369063e-01f, -4.050938040e-02f, -8.052947372e-02f, -3.001379222e-02f, 5.191163719e-02f},
    {4.809311777e-02f, -1.036446635e-02f, 6.914590299e-02f, -6.362291425e-02f, 3.250224516e-03f, -4.971019551e-02f, 8.111669123e-02f, 1.813905127e-02f, -3.664491326e-02f, 1.674197428e-02f, -1.277207956e-02f, -7.743858546e-02f},
    {-3.497485071e-02f, 3.386205062e-02f, -3.865589201e-02f, 7.107412070e-02f, 2.171470970e-02f, 3.316839412e-02f, -8.639702201e-02f, -7.148266584e-02f, 3.845744208e-02f, 7.686356455e-02f, 5.194658786e-02f, -1.425919961e-02f},
    {-2.303661779e-02f, 1.102285534e-01f, 3.948233277e-02f, 1.578382105e-01f, 1.100277249e-02f, 6.877443194e-02f, 1.920651048e-01f, -7.997594029e-02f, -2.738171071e-02f, 5.761900172e-02f, 4.807016999e-02f, 4.163981974e-02f},
    {-1.748606712e-01f, 2.484957688e-02f, 1.098120958e-01f, 6.597198546e-03f, 9.799116291e-03f, -2.709937654e-02f, 1.690515317e-03f, -1.419971883e-01f, -3.467018902e-02f, -2.160176076e-02f, -3.464323003e-03f, 5.676130950e-02f},
    {-1.038823724e-01f, -2.049893513e-02f, -2.257288806e-02f, 3.958173096e-02f, -8.759401739e-02f, -1.054452267e-02f, -3.381042276e-03f, -1.819159836e-01f, 6.288588792e-02f, 6.857483089e-02f, 9.147445858e-02f, -7.078128308e-02f},
    {-2.893738262e-02f, -1.040747166e-01f, -6.142519042e-02f, 5.756827816e-02f, 9.307765216e-02f, 2.263232693e-02f, -1.100247912e-02f, 1.169458218e-02f, -5.808250979e-02f, 4.400429875e-02f, -1.134184822e-01f, -6.526204944e-02f},
    {-5.809767172e-02f, -1.393820718e-02f, 1.290953308e-01f, 3.781899065e-02f, 1.099987924e-01f, -3.683145717e-02f, -2.508777834e-04f, -1.707948744e-02f, 1.236877986e-03f, -1.637567766e-02f, -6.029776111e-02f, 6.269027293e-02f},
    {-5.462046713e-02f, -4.594022408e-02f, 7.354599237e-02f, 4.631003365e-02f, -6.200066209e-02f, -1.233069599e-01f, 1.011618003e-01f, -1.135025322e-01f, -9.560820460e-02f, -5.302175134e-02f, 1.051697657e-01f, 4.574668780e-02f},
    {-1.917527430e-02f, 2.446144633e-02f, 8.861390501e-02f, -3.666214645e-02f, 5.692972336e-03f, 5.332887545e-02f, -8.353092521e-02f, 1.525967661e-02f, 4.069089144e-02f, 8.572280407e-02f, 9.098217636e-02f, -6.383644044e-02f},
    {9.001435339e-02f, 7.916601002e-02f, -5.514976382e-02f, 1.127856746e-01f, -8.957222849e-02f, 2.414410934e-02f, 9.285152773e-04f, 7.059535384e-02f, -1.048068106e-01f, -3.510231897e-02f, -5.522971973e-02f, 1.016720235e-01f},
    {-7.623831183e-02f, -2.035067976e-02f, 8.173467964e-02f, -4.411378503e-02f, 2.668330446e-02f, -7.293124497e-02f, -8.597258478e-03f, 9.555322118e-03f, 2.228396945e-02f, -2.484421246e-02f, 1.446002126e-01f, -4.313619062e-02f},
    {-9.748838842e-02f, -1.362924129e-01f, 1.339642555e-01f, 5.564284697e-02f, -4.829993099e-02f, -3.126238938e-03f, 1.725754328e-02f, 1.065536067e-01f, -1.237979829e-01f, 9.079036117e-02f, 1.275805384e-01f, 3.183329105e-02f},
    {6.040923297e-02f, -1.810216606e-01f, -3.793129232e-03f, 9.867528453e-03f, -7.908888906e-02f, -6.012089923e-02f, 3.021928482e-02f, 1.721007936e-02f, -8.286421746e-02f, -1.103849784e-01f, 1.271244418e-02f, -3.608029708e-02f},
    {2.206523903e-03f, 5.914377049e-02f, -2.817330649e-03f, 2.782614715e-02f, 1.158024371e-02f, 3.612076864e-02f, -4.385224357e-02f, -9.380140901e-02f, -1.076369882e-01f, 3.749656677e-02f, -3.272622824e-02f, 1.006905362e-01f},
    {-6.685075164e-02f, 1.049355045e-01f, -5.644838512e-02f, 3.745451197e-02f, -2.523954399e-02f, -5.893516168e-02f, -6.121378392e-03f, 2.272990905e-02f, 8.266525716e-02f, -3.742029890e-02f, 6.709120423e-02f, 1.219195575e-01f},
    {-3.365013376e-02f, -9.600272775e-02f, 6.223106757e-02f, 1.716755331e-02f, 5.567108840e-02f, 7.475087047e-02f, 1.152152121e-01f, 6.589432806e-02f, 4.782993346e-02f, -9.174684435e-02f, -2.554536611e-02f, -1.055226661e-02f},
    {-6.791003793e-02f, 2.070814930e-02f, 4.628714547e-02f, 7.960575819e-02f, 1.558730286e-02f, -3.680996830e-03f, -4.909748584e-02f, 7.135517895e-02f, 9.616491944e-02f, 3.278230503e-02f, 1.182093620e-01f, 7.678199559e-02f},
    {-1.692561060e-02f, 7.081700116e-02f, 9.071333706e-02f, 5.001957342e-02f, 9.230705909e-03f, 1.504027378e-02f, 7.770820986e-03f, 1.799546182e-02f, -1.123533919e-01f, 1.420403458e-02f, 6.659200042e-02f, 1.025195047e-01f},
    {4.743150249e-02f, -1.937135309e-02f, -1.301869750e-01f, -1.249937899e-02f, 4.771511629e-02f, -1.169299781e-01f, -9.334380180e-02f, -1.086366773e-01f, 7.941832393e-02f, -6.074168906e-02f, -9.194353223e-02f, 1.074531227e-01f},
    {1.177512482e-02f, -1.800941676e-02f, -3.812082857e-02f, 9.973724931e-02f, -2.325303480e-02f, -3.924273700e-02f, 8.944561332e-02f, 2.725554630e-02f, -5.228145793e-02f, 6.508241594e-02f, -3.185937181e-02f, 5.509653687e-02f},
    {-3.738540038e-02f, 5.595057085e-02f, -2.748673223e-02f, 9.656997025e-02f, 3.416427225e-02f, -8.113698661e-02f, 6.278922409e-02f, 4.509095475e-02f, -6.690099090e-02f, 5.299695954e-02f, 6.571789086e-02f, 7.619336247e-02f},
    {7.742173970e-02f, 3.569276258e-02f, 4.712958634e-02f, -7.192362845e-02f, -9.573539719e-03f, 8.449746668e-02f, 4.724633321e-02f, -7.673595846e-02f, -6.693728268e-02f, -6.685768068e-02f, -7.342673093e-02f, 4.203093424e-02f},
    {-6.071945652e-02f, 5.537833646e-02f, 1.642573625e-02f, -1.750131510e-02f, 8.783677593e-03f, 9.006922692e-02f, 2.334825462e-03f, -9.270730615e-02f, -8.826351911e-02f, 3.053471446e-02f, -2.426543087e-02f, -3.871025890e-02f},
    {-3.183007240e-02f, 5.247660726e-02f, -2.632391453e-02f, -6.713014841e-02f, -1.150922757e-02f, 1.549100596e-02f, 6.389687955e-02f, 8.809526265e-02f, -3.080863133e-02f, -5.990394391e-03f, -6.795160472e-02f, 2.511792630e-02f},
    {-9.670600295e-03f, -1.242330223e-01f, -8.877713978e-02f, 4.896475747e-02f, -1.042464450e-01f, 7.329858094e-02f, -5.008206144e-02f, 3.338178992e-02f, -4.012921825e-02f, 6.866806000e-02f, 6.487895548e-02f, 1.103555784e-01f},
    {-1.919679157e-02f, -8.624504507e-02f, 6.350190938e-02f, 3.502783552e-02f, 7.623778284e-02f, -1.264679711e-02f, 6.609205902e-02f, 7.944191247e-02f, 1.904154383e-02f, 7.869268954e-02f, -4.347918183e-02f, -3.042752109e-02f},
    {-9.194011241e-02f, -1.412198246e-01f, 1.103456169e-01f, 2.038388140e-02f, 3.927476332e-02f, -4.641206935e-02f, -3.009127825e-02f, 1.342116622e-03f, -8.224290609e-02f, -2.684113383e-02f, 2.585932240e-02f, -4.203795455e-03f},
    {6.744255871e-02f, -5.207150429e-02f, 3.932495415e-02f, 4.969260842e-02f, -1.048086286e-01f, -6.207792833e-02f, 4.129361734e-02f, 5.649684370e-02f, -1.399058290e-02f, -4.960330576e-02f, -2.121138014e-02f, -1.842936035e-03f},
    {6.007149071e-02f, 1.200013235e-02f, -1.548313908e-02f, 3.902196884e-02f, -5.454813689e-02f, -1.131373271e-01f, 5.189762637e-02f, 9.108896554e-02f, 2.308994718e-02f, -9.422779828e-02f, -3.904590383e-02f, -4.346562549e-02f},
    {3.598833829e-02f, 7.656212151e-02f, -1.428637952e-01f, -3.257272020e-02f, 4.398228228e-02f, -1.897216775e-02f, -8.199650794e-02f, -3.372047469e-02f, -5.791753903e-02f, 7.477087528e-02f, -2.649896219e-02f, 7.947827876e-02f},
    {3.128682077e-02f, -5.207050219e-02f, 1.036623120e-01f, -3.311147913e-02f, 2.676103264e-02f, -5.920244381e-02f, 5.220531300e-02f, -8.792066015e-03f, -9.448817372e-02f, 3.757317364e-02f, 7.256308943e-02f, -7.853135467e-02f},
    {8.011708409e-02f, 3.432882950e-02f, -6.173285097e-02f, -5.656103045e-02f, -4.873593897e-02f, 1.083999351e-01f, -4.601039365e-02f, -4.227455333e-02f, -2.949903160e-02f, 7.391265035e-02f, 9.894163907e-02f, 5.240374804e-02f},
    {3.878821060e-02f, -6.671506912e-02f, -1.265583187e-01f, -5.403709598e-03f, -1.004106253e-01f, -4.842947796e-02f, 8.057577163e-02f, 1.591235772e-02f, -1.196792796e-01f, 8.441358060e-02f, -7.575041056e-02f, 4.875609651e-02f},
    {-4.842934757e-02f, -1.096366812e-02f, -8.987335861e-02f, 1.386206970e-02f, 2.002296224e-02f, 2.849773318e-02f, 2.280848101e-02f, 2.204589546e-02f, 1.332097338e-03f, 8.735775203e-02f, -1.050313190e-01f, 1.231226549e-01f},
    {6.509386748e-02f, 3.032567538e-02f, -2.489847876e-02f, -5.710811540e-02f, 9.633698314e-02f, -3.718300909e-02f, 1.178788468e-01f, -6.842953712e-02f, -7.107628882e-02f, 2.851394564e-02f, 4.812504724e-02f, -4.156629369e-02f},
    {2.653892897e-02f, -1.055758148e-01f, 4.543828592e-02f, 8.103506407e-04f, -2.547511086e-02f, -1.550870575e-02f, -4.371805489e-02f, 2.903467417e-02f, -1.622979157e-02f, -8.580168337e-02f, -5.597213656e-02f, -7.284974679e-03f},
    {-2.874715813e-02f, -3.417040408e-02f, -7.323618233e-02f, 5.353492498e-02f, 1.048012823e-02f, -1.615886390e-02f, -1.334881503e-02f, -2.625863068e-02f, -7.267646492e-02f, -3.520954773e-02f, -5.286764354e-02f, 1.100897938e-01f},
    {5.638855975e-03f, -4.612271115e-02f, -5.415861309e-02f, -6.357475184e-03f, 1.398959290e-02f, 6.496195495e-02f, -1.131513640e-01f, -5.095841363e-02f, 5.914928392e-02f, 8.164937049e-02f, 5.536828190e-02f, -6.679264456e-02f},
    {1.449196935e-01f, 7.718996704e-02f, 2.789343521e-02f, 8.936656266e-02f, -2.625354333e-03f, -5.905082449e-03f, -2.596764080e-02f, 1.050641574e-02f, -1.217390895e-01f, -4.870281741e-02f, 2.391120791e-02f, -3.119061701e-02f},
    {6.395313144e-02f, 3.650879487e-02f, -1.717220843e-01f, -2.315017208e-02f, 8.363544941e-02f, -4.444268998e-03f, -4.798664153e-02f, -3.365861252e-02f, -8.395806700e-02f, -3.367712349e-02f, -8.926589042e-02f, 5.059783161e-02f},
    {1.054942161e-01f, -4.284625500e-02f, -1.576092541e-01f, -7.810420543e-02f, -8.996121585e-03f, -1.515917946e-02f, -6.363952905e-02f, 8.594094962e-02f, -6.008322164e-02f, 6.047690660e-02f, -4.509916762e-04f, -4.584699124e-02f},
    {-7.443578541e-02f, -8.915328979e-02f, 1.227804180e-02f, -1.995478384e-02f, -1.078402549e-01f, -7.370531559e-02f, 8.965526521e-02f, -2.280413173e-03f, -9.466598183e-02f, -4.471318051e-02f, -1.382958144e-01f, 1.186537966e-01f},
    {1.053559557e-01f, -3.690000251e-02f, -5.619363859e-02f, 1.005465612e-01f, 9.262012690e-02f, -9.010771662e-02f, -1.639485359e-02f, 1.590722054e-01f, -6.617290527e-02f, -6.853383780e-02f, -3.641660511e-02f, 5.333283916e-02f},
    {1.240887120e-01f, 1.069025472e-01f, 2.888102457e-02f, -6.323416531e-02f, 2.637183480e-02f, -1.509921551e-01f, 5.884948000e-02f, 1.839965262e-04f, -5.922072381e-02f, -3.956116363e-02f, -9.257873148e-02f, 8.057622612e-02f},
    {1.394184977e-01f, 1.135083381e-02f, -1.639290452e-01f, 8.347422630e-02f, 7.674703747e-02f, -5.764312297e-02f, 2.913717553e-02f, 1.005472839e-01f, -9.189420938e-02f, 3.567492962e-02f, -1.239347383e-01f, 3.264677897e-02f},
    {-1.033757254e-02f, 6.847078353e-02f, -7.706271857e-02f, -3.053939529e-02f, 3.023520298e-02f, 4.594822880e-03f, -6.669140607e-02f, -8.850406855e-02f, 8.700487763e-02f, 5.932152271e-02f, 6.742897909e-03f, 4.846995696e-02f},
    {-2.118656039e-02f, -3.491744399e-02f, 4.706563428e-02f, 1.825969666e-02f, 3.024164028e-02f, -2.817329764e-02f, -5.061583966e-02f, 3.826587275e-02f, -5.564754456e-02f, 1.111755334e-02f, 4.331916571e-02f, -1.100721136e-01f},
    {4.107322916e-02f, 3.651875630e-02f, 7.801402360e-02f, 1.224318892e-01f, -2.847712301e-02f, 2.574442327e-02f, -7.475807518e-02f, 8.938205987e-02f, -9.002847224e-02f, 1.816227473e-02f, -5.096305534e-02f, 2.664569579e-02f},
    {4.097815603e-02f, 3.162490437e-03f, -5.528998375e-02f, 8.815640211e-02f, 7.409150247e-03f, -7.325305045e-02f, -2.359738573e-02f, 1.552691162e-01f, 3.635758162e-02f, -1.074891165e-02f, 1.360833831e-02f, -9.919121861e-02f},
    {-3.344220668e-02f, -1.089925226e-02f, -8.826898783e-02f, 3.347811475e-02f, -1.518691611e-02f, 1.475073583e-02f, -8.384651691e-02f, -2.263339423e-02f, -3.908273950e-02f, 5.311877467e-03f, -3.540636972e-02f, 4.327026755e-02f},
    {5.931007862e-02f, -3.846051916e-02f, 7.809823006e-02f, -3.634465486e-02f, -7.117889076e-02f, -8.874707669e-02f, 8.049377054e-02f, 8.728969097e-02f, 4.992789030e-02f, -4.372974858e-02f, -1.031628028e-01f, 1.234529074e-02f},
    {3.630928695e-02f, -7.332447171e-02f, 3.908052295e-02f, -8.393402398e-02f, 2.857287601e-02f, 2.849870548e-02f, 1.458815392e-02f, -9.534360841e-03f, -1.707158610e-02f, -4.019099101e-02f, 3.770197928e-02f, 5.688704550e-02f},
    {1.486091875e-02f, -8.049906045e-02f, 7.271613926e-03f, 1.027817801e-01f, 1.403396484e-02f, 1.805863157e-02f, -1.229162961e-01f, 1.203153506e-01f, -6.552003324e-02f, 5.488457531e-02f, 3.136000782e-02f, -7.363615930e-02f},
    {-7.282890379e-02f, -1.392961591e-01f, 4.304291680e-03f, 1.868317649e-02f, -8.382819593e-02f, 1.437856909e-02f, -6.430618465e-02f, -5.906974897e-02f, 5.508014932e-02f, 4.057522863e-02f, -9.752103686e-02f, 3.302297369e-02f},
    {-5.471158773e-02f, -1.386558414e-01f, 9.520791471e-02f, 7.701143622e-02f, 1.174909435e-02f, -1.372931302e-01f, -5.482348055e-02f, 5.977800582e-03f, -8.493938297e-02f, -2.934685035e-04f, 5.076198652e-02f, 3.230222315e-02f},
    {-3.445499018e-02f, 5.758064333e-03f, -3.260255978e-02f, 1.493927557e-02f, 1.560794562e-02f, -7.639021426e-02f, 3.779625520e-02f, 1.321646664e-02f, 3.090907261e-02f, -3.499440476e-02f, 2.137283422e-02f, 1.433650730e-03f},
    {3.654907271e-02f, -1.115452219e-02f, 5.443057744e-04f, -2.095208503e-02f, 4.428531975e-02f, 4.926516209e-03f, -1.368876398e-01f, 4.898815975e-02f, -1.356123537e-01f, -1.521917526e-02f, -1.236789525e-01f, -6.126077380e-03f},
    {1.169481035e-02f, 7.514216006e-02f, -4.414213449e-02f, -1.109073013e-01f, 4.643884487e-03f, 1.345612109e-02f, -1.404810417e-02f, 4.323387146e-02f, -1.026355755e-02f, 3.517520428e-02f, 2.615924738e-02f, 8.281580172e-03f},
    {1.304787397e-02f, -9.864658117e-02f, -3.544301167e-02f, 4.922459647e-02f, -8.598794043e-02f, -6.410701573e-02f, 5.086221546e-02f, 8.878628165e-02f, -1.745347865e-02f, -2.789304778e-02f, 6.647933275e-02f, -1.373960078e-02f},
    {-3.054185398e-02f, -6.152317673e-02f, 9.498805553e-02f, 2.356977388e-02f, -6.129608303e-02f, -4.889697954e-02f, 2.669766732e-02f, 6.029401347e-02f, 4.659058154e-02f, 9.063359350e-02f, -5.898218229e-02f, 3.678589687e-02f},
    {7.317342609e-02f, -1.130844932e-02f, -4.428443685e-02f, 4.714000225e-02f, -1.464251801e-02f, -3.797766194e-02f, -8.038836718e-02f, 8.389514685e-02f, -5.659159645e-02f, -1.172336638e-01f, 8.303184994e-03f, -4.707622901e-02f},
    {-2.812995575e-02f, -1.073600277e-01f, 2.929499000e-02f, 7.312289625e-02f, -2.407095768e-02f, -1.394848228e-01f, -1.159200594e-01f, -1.873857528e-02f, 1.237471774e-02f, 2.231370471e-02f, -2.782669850e-03f, 8.986930549e-02f},
    {2.613275498e-02f, 7.405779511e-02f, -3.039550595e-02f, 3.634050663e-04f, -1.151053905e-01f, 2.003273221e-05f, -5.663092062e-02f, -4.141157120e-02f, 7.820019126e-02f, 2.016252279e-02f, -3.088327358e-03f, 1.580616385e-01f},
    {4.888796061e-02f, -3.379061446e-02f, 4.604035616e-02f, 4.402752221e-02f, 4.030775651e-02f, -7.667728513e-02f, -3.225776891e-04f, 7.967987657e-02f, -4.998298734e-02f, 3.531984519e-03f, 4.331820458e-02f, -5.633793771e-02f},
    {1.036759019e-01f, -6.547167152e-02f, -7.234343141e-02f, 1.489174087e-02f, -1.142764315e-01f, 3.992873058e-02f, -1.124311611e-02f, 1.117913499e-01f, -1.203644425e-01f, -1.002400070e-01f, -8.971651085e-03f, -2.538181655e-02f},
    {6.477613002e-02f, -1.077580526e-01f, 6.173879839e-03f, -9.551879764e-02f, 9.096522816e-03f, -9.523346089e-03f, -1.557457894e-01f, 1.138583198e-02f, -1.605255902e-02f, 8.162296563e-02f, -6.613738835e-02f, 1.213404387e-01f},
    {3.116865410e-03f, -1.171483621e-01f, -2.191682160e-02f, -8.138363063e-02f, -5.134246498e-02f, -4.286250472e-02f, -4.490102455e-02f, 1.176591311e-02f, -8.775935322e-02f, -1.079879776e-01f, 1.462099329e-02f, 1.381782442e-01f},
    {1.786316745e-02f, 4.373395350e-03f, -9.000726044e-02f, -8.134767413e-02f, -2.055948041e-02f, -1.164945215e-02f, 1.491067372e-02f, -1.750763878e-02f, 1.686776755e-03f, 9.354141355e-02f, -9.003169835e-02f, 4.160625488e-02f},
    {7.471801341e-02f, 1.047540735e-02f, -3.762776963e-03f, 4.582026601e-02f, 2.236737683e-02f, 7.089083083e-03f, -6.975969672e-02f, 1.131692156e-02f, -2.589644119e-02f, -5.312959105e-02f, -9.304621816e-02f, 2.453430323e-03f},
    {1.973631233e-02f, -1.895285770e-02f, -1.401818544e-01f, 8.150508255e-02f, -4.236430675e-02f, 2.024082653e-02f, -1.365759522e-01f, -7.898197323e-02f, 4.751942307e-02f, -4.141497239e-02f, -8.742754161e-02f, -5.212935805e-02f},
    {-6.502681226e-02f, -7.831925759e-04f, 1.209858656e-01f, 7.613248657e-03f, 7.154612988e-02f, 8.470553905e-02f, -2.307858504e-02f, -2.509563603e-02f, 7.097193599e-02f, -6.569853425e-02f, -2.522857673e-02f, -5.345030501e-02f},
    {6.845592707e-02f, 3.281864151e-02f, 4.432940111e-02f, -1.074337959e-01f, -5.361674353e-02f, -6.318404526e-02f, -1.456525177e-01f, 7.738333941e-02f, 3.898734599e-02f, 4.915991426e-02f, 1.061481610e-02f, 8.013690263e-02f},
    {4.791906103e-02f, -6.807262450e-02f, -7.785463333e-02f, -1.072046384e-01f, -3.432024643e-02f, -1.199411228e-01f, -4.810253531e-02f, -1.402959414e-02f, -1.154109910e-01f, -7.125777006e-02f, -7.513198256e-02f, -6.425888836e-02f},
    {1.341619939e-01f, -4.331048205e-02f, -3.860583901e-02f, -4.071073607e-02f, 8.667423576e-02f, -1.126693003e-02f, 1.514260471e-02f, -8.416138589e-03f, 5.959875509e-02f, 5.256117880e-02f, -1.151043028e-01f, 1.048466787e-01f},
    {4.727058578e-03f, 1.975912414e-02f, -7.726573199e-02f, -1.359033585e-02f, -6.896716356e-02f, -1.056141183e-01f, -1.278810501e-01f, -5.658542365e-02f, 7.630798966e-02f, -2.316176193e-03f, 4.952922836e-02f, -2.526953758e-04f},
    {-2.392364666e-02f, -5.232669786e-02f, 4.396039061e-03f, -4.298774526e-02f, -9.418500587e-03f, 4.241709784e-02f, -5.078857020e-02f, -3.072968870e-02f, 3.530909121e-02f, 3.712368757e-02f, -1.136777475e-01f, 5.143344775e-02f},
    {-4.077804089e-02f, 2.577934228e-02f, -1.276695728e-01f, 5.868534558e-03f, 1.078346185e-02f, -1.635102481e-01f, -3.616635501e-02f, -3.440211713e-02f, -4.347902909e-02f, -4.098823294e-02f, -5.158716440e-02f, 1.105548143e-01f},
    {4.071794823e-02f, -5.859827250e-02f, -9.306958318e-02f, -1.115780249e-01f, 3.831600398e-02f, 9.949994087e-02f, -1.341258734e-01f, -4.819449782e-02f, -4.137344286e-02f, -4.825636372e-02f, 2.175560221e-03f, 8.617529646e-03f},
    {-1.336295903e-01f, -4.875330254e-02f, -1.000723839e-01f, -1.915991493e-02f, -1.279083341e-01f, 5.373970047e-02f, 9.373853356e-02f, -1.886942089e-01f, -5.026838928e-02f, -7.640689611e-02f, 1.286274195e-02f, 6.143146753e-02f},
    {1.347459555e-01f, -3.257698938e-02f, 3.962185979e-02f, -1.015213877e-01f, 1.845355332e-01f, 2.041204087e-02f, -7.922722399e-02f, 5.846336484e-02f, -7.022185624e-02f, 4.625429586e-02f, -1.422409266e-01f, -1.562914848e-01f},
    {2.750744112e-02f, 9.642542154e-02f, -9.291031957e-02f, -3.591950610e-02f, -1.947900467e-02f, -6.142844632e-02f, -6.021872535e-02f, -1.121952198e-02f, -4.503921047e-02f, 1.184796914e-02f, 2.705198154e-02f, 7.834254205e-02f},
    {-5.446448177e-02f, -3.765227273e-02f, 6.597997248e-02f, 2.333644778e-02f, 6.092706695e-02f, -3.462366387e-02f, -1.065235510e-01f, 2.794434689e-02f, 7.443255186e-02f, -9.326481819e-02f, -9.670867026e-02f, -5.990552157e-02f},
    {8.948097378e-02f, 1.933613420e-02f, 3.704850003e-02f, -4.974543676e-02f, 6.143145263e-02f, 5.109697208e-02f, -1.864429377e-02f, 1.066908240e-01f, -5.417258665e-02f, -6.307195872e-02f, 3.700753674e-02f, -7.012851536e-02f},
    {1.062129736e-01f, -5.090422556e-02f, 1.113578975e-01f, 5.569947511e-02f, 7.791948318e-02f, -8.005623706e-03f, -6.713374984e-03f, 1.675834209e-01f, 9.531462938e-02f, 6.880697608e-02f, -8.117656410e-02f, 6.325215846e-02f},
    {-4.558404535e-02f, -4.143934324e-02f, 5.962323025e-02f, 6.732421368e-02f, 2.872805484e-02f, -9.837283194e-02f, -1.097554639e-01f, 2.984998561e-02f, -2.647630125e-02f, 1.177340932e-02f, 8.791989088e-02f, -8.460665494e-02f},
    {-8.279309259e-04f, 4.048593715e-02f, -7.120501250e-02f, -5.853120610e-02f, -4.893578589e-03f, -2.266068012e-02f, -4.893025383e-02f, 1.442544460e-01f, 6.138992310e-02f, -8.677621931e-02f, -9.146685153e-02f, 1.080924794e-01f},
    {-9.221773595e-02f, -4.901282489e-02f, 1.926013641e-02f, -2.630367689e-02f, 8.463049680e-02f, 8.545842022e-02f, 1.312278509e-01f, 1.751251891e-02f, -1.040401533e-01f, -6.070845574e-02f, 4.879315197e-02f, 2.898179367e-02f},
    {-1.163591594e-01f, 2.515285835e-02f, -9.499924630e-02f, 1.106549725e-01f, -7.554090023e-02f, 6.654954050e-04f, 8.821397275e-02f, 2.035747468e-02f, 3.754744679e-02f, 1.367471926e-02f, -8.754167706e-02f, -1.898521371e-02f},
    {6.653727591e-02f, -2.162487619e-02f, -7.222119719e-03f, 8.089657873e-02f, -1.306084245e-01f, -6.703751534e-02f, -7.441336755e-03f, -8.423341066e-02f, -9.533982724e-02f, 7.216457278e-02f, 6.712250412e-02f, -7.502615452e-02f},
    {2.185247838e-02f, 6.927324086e-02f, 4.639241844e-02f, -4.517620429e-02f, -5.930172279e-02f, 6.396173686e-02f, 3.146952763e-02f, -7.823748142e-02f, -8.304092288e-02f, -4.744345695e-02f, -2.762378007e-02f, 1.052589044e-01f},
    {-1.729498506e-01f, 8.602720499e-02f, 1.516757160e-01f, -8.860109374e-03f, -1.402045488e-01f, 5.415045191e-03f, 7.117912173e-02f, 2.890179306e-02f, 9.163098410e-03f, 2.392140031e-02f, 8.669614792e-02f, -7.991316915e-02f},
    {2.649715357e-02f, -1.002255604e-01f, 6.905113906e-02f, 6.953550130e-02f, -8.903304487e-02f, 2.875485085e-02f, -2.418294922e-02f, -4.713830352e-02f, -8.478898555e-02f, 7.562887669e-02f, -1.980958879e-02f, 1.002511457e-01f},
    {3.861311451e-02f, -9.782164544e-02f, 8.748193085e-02f, -5.174437538e-02f, -3.501228988e-02f, 1.246220171e-01f, -6.948643178e-02f, -1.021679193e-01f, -4.154528305e-02f, 1.002025902e-01f, 1.060642526e-01f, -3.671047837e-02f},
    {-6.383031607e-02f, 2.305870131e-02f, 3.343349323e-02f, -1.502283290e-02f, -6.873261929e-02f, 2.492220514e-02f, 3.558929265e-02f, 4.186892882e-02f, -1.204179693e-02f, 3.875311837e-02f, -1.285679340e-01f, 1.152375117e-01f},
    {-5.302652717e-02f, -5.767695233e-02f, -1.101309359e-01f, 9.850187600e-02f, 4.554346949e-02f, -3.761790693e-02f, 2.251009829e-02f, 7.011426985e-02f, 8.746736497e-02f, -8.826355636e-02f, -3.133366629e-02f, 2.479908615e-02f},
    {4.167482629e-02f, -7.059574872e-02f, 4.191879556e-02f, -5.270211771e-02f, -6.118773296e-02f, -4.160251096e-02f, -1.366425585e-02f, 5.373778939e-02f, 4.821839556e-02f, -6.470282376e-02f, 3.649228066e-02f, -3.197197989e-02f},
    {-4.439978674e-02f, 1.531190611e-02f, 8.894001693e-02f, -1.539977826e-02f, -3.953830525e-02f, -1.032468677e-02f, 7.075661421e-02f, 6.498684734e-02f, -1.005517785e-02f, -1.195601653e-02f, 9.756997228e-02f, -9.198822081e-02f},
    {2.876229957e-02f, 2.237550943e-04f, -6.707139779e-03f, 8.982297033e-02f, -7.195842452e-03f, -1.505720615e-02f, 7.027635723e-02f, -1.034249887e-01f, -9.811740369e-02f, -1.048656851e-01f, 5.973621272e-03f, -6.670196354e-02f},
    {9.271860868e-02f, -9.299550951e-02f, 2.503650635e-02f, -1.005480886e-01f, 1.729661785e-02f, -2.797514666e-03f, -2.809369005e-02f, 4.913068190e-02f, -3.560500965e-02f, 4.218360409e-02f, 2.197487652e-02f, -7.829084992e-03f},
    {-1.089628562e-01f, -2.881725691e-02f, 2.904321998e-03f, 3.941836208e-02f, 2.693968825e-02f, -9.116248786e-02f, 4.644625261e-02f, -2.283032797e-02f, -3.348715603e-02f, 4.632340744e-02f, -9.145440161e-02f, -2.879887074e-02f},
    {8.737181313e-03f, 7.145514339e-02f, -7.382249832e-02f, 7.296147943e-02f, -2.760758996e-02f, 3.405646980e-02f, -5.830037966e-02f, -3.222412243e-02f, -3.638774157e-02f, 4.562763497e-02f, 6.468366832e-02f, 9.723059833e-02f},
    {-1.941046678e-02f, -5.226542056e-02f, -1.458798070e-02f, -4.161626846e-02f, 4.131422192e-02f, -2.873342298e-02f, 8.907076716e-02f, -6.439311057e-02f, 2.907941863e-02f, -1.094452217e-01f, 3.725533839e-03f, 6.307759881e-02f},
    {4.313511774e-02f, 4.664791375e-02f, 9.181596339e-02f, 3.421372175e-02f, 1.447650325e-02f, 5.256729200e-03f, 2.975200117e-02f, 2.907222882e-02f, -1.098672301e-02f, 1.209031790e-03f, 5.482224748e-02f, -6.724554300e-02f},
    {-8.744185418e-02f, -8.426649123e-02f, -9.507188946e-02f, -1.308368798e-02f, -1.658693328e-02f, 3.845554963e-02f, 6.299855560e-02f, -1.060592607e-01f, -2.872280777e-02f, 6.702311337e-02f, 7.430388778e-02f, 9.499642253e-02f},
    {4.601691663e-02f, -4.982927814e-02f, -3.258342296e-02f, 8.855309337e-02f, -2.975551970e-02f, 4.690814018e-02f, -3.872132301e-02f, -6.674607843e-02f, 6.579472125e-02f, 5.866095051e-02f, 5.375535041e-02f, -6.444945931e-02f},
    {-7.067224383e-02f, -4.023328796e-02f, 3.232787177e-02f, 6.970844418e-02f, 5.256964266e-02f, 1.108221263e-01f, 1.191522479e-01f, -1.668921113e-02f, -5.326431617e-02f, -3.725427389e-02f, 1.371794008e-02f, -4.211816192e-02f},
    {8.471413516e-03f, -1.054885387e-01f, 6.783798337e-02f, 3.496757895e-02f, -9.866211563e-03f, 8.046647906e-02f, 1.360146850e-01f, -4.223969206e-02f, -8.840058744e-02f, 6.855823845e-02f, -2.546311356e-02f, -1.123870984e-01f},
    {-5.256862566e-02f, 1.349945553e-02f, 1.172020957e-01f, -6.099926308e-02f, -7.730241120e-02f, -4.378217086e-02f, 8.558864146e-02f, 8.199789375e-02f, 1.436677016e-02f, 9.888058901e-02f, 5.662484095e-02f, 5.738780648e-02f},
    {-5.539458618e-02f, 4.171153158e-02f, -8.021700196e-03f, -5.174148828e-03f, 2.575451881e-02f, 1.346291006e-01f, 1.106655598e-01f, -5.743328109e-02f, -1.629311964e-02f, 7.056617737e-02f, 5.558473244e-02f, 4.244364798e-02f},
    {-2.796353772e-02f, -3.108779714e-02f, -9.487432241e-02f, 3.083547205e-02f, -1.384970546e-01f, 5.592493340e-02f, -2.387293242e-02f, -7.532686740e-02f, -3.832559288e-02f, 2.998828143e-02f, 1.170552988e-02f, -3.837802634e-02f},
    {-1.396081317e-02f, 7.157563418e-02f, 1.800312661e-02f, 7.812655717e-02f, 1.904112101e-02f, -4.464396089e-02f, -7.198998239e-03f, 4.044328257e-02f, -8.043534309e-02f, 3.268898651e-02f, 9.386049584e-03f, -1.273203176e-02f},
    {2.545355074e-02f, -1.139862835e-01f, -9.916011244e-02f, 1.473300010e-01f, 1.343869604e-03f, 3.699483350e-02f, 6.228656042e-03f, -5.315396190e-02f, -1.074118614e-01f, 1.041561440e-01f, -3.311385214e-02f, -2.082452551e-02f},
    {5.462234374e-03f, -6.591051072e-02f, -3.310605511e-02f, 4.202792794e-02f, 1.131589487e-01f, -5.929569900e-02f, 7.118425518e-02f, 4.069103673e-02f, -6.973373890e-02f, 7.697334141e-02f, 4.873440042e-02f, -2.681262232e-02f},
    {1.631401628e-01f, 1.702798754e-01f, -1.208071262e-01f, -7.637399249e-03f, -5.361174047e-02f, 4.101565853e-02f, -5.611856282e-02f, -6.405492127e-02f, -1.096317545e-01f, -7.555729896e-02f, 2.058549970e-02f, 1.716872603e-01f},
    {1.426224113e-01f, -1.999646053e-02f, -1.332836598e-01f, 1.445204914e-01f, -1.923834346e-02f, -1.345919371e-01f, 5.463727936e-02f, 1.004602686e-01f, 4.801150353e-04f, -5.009342358e-02f, 1.815230027e-02f, 8.840810508e-02f},
    {1.092540249e-01f, 2.447468974e-02f, -7.765406370e-02f, -6.107322499e-02f, -8.627137169e-03f, -1.395077407e-01f, 1.142741926e-02f, 4.715568572e-02f, 3.104116023e-02f, 1.019778475e-01f, 9.280446917e-02f, 2.503700554e-02f},
    {2.335142531e-02f, 2.788632922e-02f, 3.119318746e-02f, 5.848322529e-03f, 7.217857242e-02f, -2.464897558e-02f, -5.013852566e-02f, 5.965925753e-02f, -8.380861022e-03f, -3.523522243e-02f, 3.134106053e-03f, -7.136658300e-03f},
    {8.562798053e-02f, -3.455891507e-03f, -4.758052528e-02f, 8.582337201e-02f, 8.373824507e-02f, -2.595096081e-02f, -7.161322981e-02f, -5.728986859e-02f, -7.252981514e-02f, 2.044638433e-02f, 5.263839290e-02f, -5.197542533e-02f},
    {-8.926147223e-02f, 8.505180478e-02f, -7.327629626e-02f, -2.868457139e-02f, 5.483869463e-03f, -3.503891826e-02f, -5.535476282e-02f, -1.164294705e-01f, 1.511520892e-02f, 4.194849171e-03f, -4.414775595e-02f, -7.927017659e-02f},
    {1.612155288e-01f, 6.776015460e-02f, -1.991662532e-01f, -2.918491513e-02f, -9.998166561e-02f, 7.312444597e-02f, 4.773980007e-02f, -2.535981359e-03f, -4.664687440e-02f, -6.191869825e-02f, -7.386479527e-02f, 1.770438403e-01f},
    {9.983415902e-02f, 1.934747584e-02f, -2.150178254e-01f, 1.105026305e-01f, -2.550480329e-02f, -4.630982131e-02f, -3.367720917e-02f, 1.081634164e-01f, -7.618311793e-02f, 1.088235080e-01f, -2.938645892e-02f, 3.934635967e-02f},
    {6.011778954e-03f, 3.794576973e-02f, -2.037884444e-01f, 5.271709710e-02f, 5.415124819e-02f, -2.502115443e-02f, -9.909407794e-02f, 3.452617303e-02f, -7.078915834e-02f, 4.941410944e-02f, -8.791599423e-02f, -9.036170691e-02f},
    {1.720281392e-01f, -8.353498578e-02f, -1.152432412e-01f, 3.455714509e-02f, 7.325813174e-02f, -1.130697504e-02f, -7.068948448e-02f, 1.274359971e-01f, -2.246345580e-02f, -6.775799394e-02f, -3.080294095e-02f, 1.940971985e-02f},
    {8.703961223e-02f, 1.145072654e-01f, -2.862227336e-02f, -3.562998027e-02f, 1.444930434e-01f, 1.490420476e-02f, 8.383714408e-02f, 6.121163070e-02f, 7.594884187e-02f, 7.543025911e-02f, -4.721514136e-02f, -1.315030903e-01f},
    {3.904356435e-02f, 8.638278395e-02f, -1.394962966e-01f, 1.573298313e-02f, 1.257248521e-01f, -9.939493239e-02f, 5.906930566e-02f, 1.033149101e-02f, -3.267951310e-02f, 1.030977964e-01f, -6.276847422e-02f, 3.313075006e-02f},
    {-1.064943299e-01f, 2.735800575e-03f, -4.079958051e-02f, 1.247188747e-01f, -3.286772175e-03f, 1.093524992e-01f, -7.326795161e-02f, -8.354696631e-02f, 4.451811314e-02f, -9.802772850e-02f, 3.866026551e-02f, 1.183337346e-02f},
    {1.253807638e-02f, 1.160260141e-01f, 6.560654938e-02f, 8.346914314e-03f, -1.807346940e-02f, 2.020765655e-02f, 2.116630494e-04f, -3.942395747e-02f, 3.317293525e-02f, -1.030415529e-03f, -1.131516024e-01f, 4.820978642e-02f},
    {1.454718225e-02f, 1.274547875e-01f, -1.117474884e-01f, 1.292995512e-01f, 1.134356707e-01f, 6.885683537e-02f, -3.005456738e-02f, -3.174493089e-02f, 4.174142331e-02f, -2.443723939e-02f, -1.576659153e-03f, 4.099521041e-02f},
    {-6.319452077e-03f, 4.722964391e-02f, 2.892926708e-02f, 1.722664684e-01f, -1.602076888e-01f, -3.310692264e-04f, -9.241990000e-02f, 1.065140404e-02f, -7.031591982e-02f, 4.397949204e-02f, -1.450592577e-01f, 1.032748371e-01f},
    {2.616711333e-02f, 6.173589826e-02f, -1.956951339e-03f, 2.110098302e-01f, 7.816918939e-02f, 7.162629068e-02f, -5.689256266e-02f, 4.519476742e-02f, 4.088532552e-02f, 5.078784656e-03f, -1.432744414e-01f, -2.917382121e-02f},
    {-4.694170132e-02f, 5.006994680e-02f, 6.947512925e-02f, 1.016719919e-02f, 7.297359873e-03f, 5.127609894e-02f, 2.078336477e-02f, -3.721353784e-02f, -3.479129402e-03f, -7.256249338e-02f, 3.331711888e-02f, -2.642550971e-03f},
    {8.043023944e-02f, 3.365488350e-02f, 5.742923915e-02f, -5.174693465e-02f, 6.932028383e-02f, 1.167307049e-02f, -5.338465795e-03f, 1.888050139e-02f, -3.137692437e-02f, 1.022832096e-01f, -1.260909140e-01f, -2.505452558e-02f},
    {4.376783594e-02f, 4.355185479e-02f, 4.741553590e-02f, 2.512190118e-02f, 1.076300889e-01f, 1.250668019e-01f, -1.741937697e-01f, -4.034416378e-02f, 2.975891344e-02f, 1.456110924e-02f, -6.731537730e-02f, 1.090005413e-02f},
    {-2.389091300e-03f, -1.144820545e-02f, -1.418374032e-01f, -4.581565037e-02f, 6.720748544e-02f, -1.029957980e-01f, -1.294068694e-01f, 6.907363236e-02f, 1.270154770e-02f, -4.966083448e-03f, -5.522084236e-02f, -3.563390300e-02f},
    {1.188599598e-02f, 7.915539667e-03f, 2.110224776e-02f, 2.711768448e-02f, -7.510911673e-03f, -5.335463211e-02f, -8.043711632e-02f, 7.522540540e-02f, -2.255221456e-02f, -7.235619426e-02f, -7.563544810e-02f, 5.791018251e-03f},
    {-8.503624797e-02f, -7.650607079e-02f, 3.111362085e-02f, 6.388832629e-02f, 1.138667911e-01f, -7.172720879e-02f, -3.673492372e-02f, 2.263669297e-02f, -1.204607170e-02f, 6.486357749e-02f, -1.101078913e-01f, -1.295395792e-01f},
    {-4.709017277e-02f, 1.386709698e-02f, -8.256387711e-02f, -5.391398445e-02f, -3.110189550e-02f, 7.264152169e-02f, -1.587247849e-01f, -4.013979062e-02f, -1.179250982e-02f, 4.629475996e-03f, -9.686547518e-02f, 1.103170440e-01f},
    {1.787202246e-02f, -1.068613678e-01f, 1.204491705e-01f, 3.620310128e-02f, -6.332974136e-02f, -5.638536066e-02f, -1.618189216e-01f, -5.974122882e-02f, 3.596083447e-02f, 8.348007686e-03f, 1.583191007e-02f, 8.914938569e-02f},
    {-1.013512164e-01f, -8.653413504e-03f, 6.041073706e-03f, 3.615502268e-02f, -3.545510396e-02f, -5.718504265e-02f, 4.269972071e-02f, -1.225090958e-02f, 1.025399044e-01f, -5.851501971e-02f, -1.287540197e-01f, -3.201885521e-02f},
    {-7.026085258e-02f, 6.478820462e-03f, 5.075808614e-02f, -1.912728138e-02f, -1.058741845e-02f, -2.773956396e-02f, 4.771414772e-02f, -4.334808793e-03f, -5.978725106e-02f, 8.119447157e-03f, -8.352129906e-02f, -5.342318118e-02f},
    {6.404627860e-02f, 8.215507120e-02f, 1.051176433e-02f, 8.755759895e-02f, 3.481521271e-03f, -4.147365317e-02f, -1.497052237e-02f, -3.261980042e-02f, -5.883612204e-03f, 6.720732152e-02f, -7.700279355e-02f, 6.195156276e-02f},
    {5.718340725e-02f, 5.358582363e-03f, 1.503766626e-01f, 3.054517321e-02f, 8.605498821e-02f, 3.463250585e-03f, 1.640222967e-02f, 5.284891278e-02f, 3.453108296e-02f, 3.116142936e-02f, -4.145002738e-02f, -2.359249443e-02f},
    {-3.675388545e-02f, -4.376648739e-02f, -4.067159072e-02f, -4.366410524e-02f, 8.096060157e-02f, -1.880670711e-02f, -7.343471050e-02f, -4.434039071e-02f, -1.540911966e-03f, 5.378003418e-02f, 5.075615272e-02f, -7.457546890e-02f},
    {-4.836264625e-02f, -6.499798037e-03f, -1.792605966e-03f, 5.110388249e-02f, 8.683972806e-02f, 8.306159079e-02f, -6.888133287e-02f, -7.836135477e-02f, 6.430291384e-02f, 2.406165190e-02f, -9.390635043e-02f, 2.536571212e-02f},
    {8.056905121e-02f, 5.849127099e-02f, -4.165059328e-02f, 1.564099789e-01f, -7.206650078e-02f, -1.094947681e-01f, -1.096902862e-01f, 1.145727113e-01f, 1.213650964e-02f, -1.030701920e-01f, -3.342778236e-02f, 9.027035534e-02f},
    {-7.625177503e-02f, -2.929245681e-02f, -2.016064338e-02f, -5.718979612e-02f, -1.534559019e-02f, 6.267409027e-02f, -8.762364089e-02f, -8.114486933e-02f, -5.441156775e-02f, 7.485537231e-02f, 7.867465611e-04f, -1.453764923e-02f},
    {2.545846812e-02f, 3.502534702e-02f, -7.476345450e-02f, 6.998316199e-02f, 2.916345000e-02f, 2.996498160e-02f, 1.570178568e-02f, -9.991648793e-02f, 5.719608814e-02f, 4.492623731e-02f, -1.017043716e-03f, 2.169168182e-02f},
    {-8.852875233e-02f, 1.498471480e-02f, -5.842251703e-03f, 4.147559032e-02f, -3.049356677e-02f, 7.386951149e-02f, -5.669914559e-02f, -6.328206509e-02f, -8.523442596e-02f, -9.556486458e-02f, -9.862164408e-02f, 1.123107877e-02f},
    {-9.163944423e-02f, -5.811403692e-02f, -4.625520483e-02f, -2.536945045e-02f, -6.796731800e-02f, -3.929811344e-02f, -1.192108020e-01f, 9.976370633e-02f, 7.398941368e-02f, 6.873036176e-02f, -2.341417223e-02f, -7.663241774e-02f},
    {-5.652477592e-02f, -1.223963033e-02f, -4.189106449e-02f, 2.113239318e-01f, 4.119238816e-03f, -1.017368287e-01f, 2.289552800e-02f, 5.137322843e-02f, 1.820214279e-02f, -9.175936133e-02f, -1.400668472e-01f, 6.615426391e-02f},
    {-2.315746993e-02f, 8.583005518e-02f, 1.217918992e-01f, -7.686996367e-03f, 4.292663932e-02f, 3.761215508e-02f, -8.406576514e-02f, -3.266814724e-02f, 4.508531652e-03f, -9.561046213e-02f, 5.258733407e-02f, -2.071622200e-02f},
    {-2.512152679e-02f, 3.512833267e-02f, 8.833384141e-03f, 6.899034139e-03f, 6.214052066e-02f, -2.878269739e-02f, 1.483278722e-02f, -3.994142264e-02f, 6.294454634e-02f, -9.761565924e-02f, -5.215114355e-02f, 1.344445162e-02f},
    {-4.180265218e-02f, 7.448097318e-02f, -6.248301268e-02f, 2.459312044e-02f, -2.421830595e-02f, 2.455314808e-02f, -9.655154496e-02f, 7.157736272e-02f, -8.503515273e-02f, -6.485723704e-02f, -5.144406483e-02f, -8.665020764e-02f},
    {2.851590980e-03f, -8.804631978e-02f, 9.796014056e-03f, -6.780606508e-02f, -9.150211513e-02f, 5.707344413e-02f, -6.585469842e-02f, 5.410825461e-02f, -9.824559093e-02f, -2.473594435e-02f, -1.290427446e-01f, 1.039960831e-01f},
    {-4.484362528e-02f, -2.800018713e-02f, -4.096421599e-02f, -1.259311661e-02f, 4.157562926e-02f, 6.860491633e-02f, -1.571510881e-01f, -6.330641359e-02f, 4.840198159e-02f, -2.315334603e-02f, -6.088417768e-02f, 9.732610732e-02f},
    {3.346865252e-02f, 5.378538370e-02f, -5.016988143e-02f, 9.582111239e-02f, -1.483061444e-02f, -9.528814256e-02f, -1.053996459e-01f, 4.357878491e-02f, 3.147594165e-03f, -1.422705315e-02f, 1.422574650e-02f, 6.554105133e-02f},
    {-1.285695881e-01f, 1.118194386e-01f, -1.127087697e-02f, 1.065067723e-01f, -1.149894670e-01f, -8.650051802e-02f, -1.392839551e-01f, -4.360388964e-02f, 5.995057523e-02f, -9.180752933e-02f, -2.746830508e-02f, 1.100971326e-01f},
    {1.334860176e-01f, 7.975257188e-02f, -1.315669436e-02f, -5.344349518e-02f, 7.258307934e-02f, 1.139132772e-02f, -8.705730736e-02f, 8.396393619e-03f, 3.892995045e-02f, -4.265586287e-02f, 2.596797235e-02f, -2.386807650e-02f},
    {-1.352667809e-02f, 4.628258198e-02f, 1.164966375e-01f, -1.108524576e-01f, -4.158380628e-02f, 8.013781160e-02f, 1.018942818e-01f, -9.688830376e-02f, 3.459722921e-02f, 1.662660018e-02f, 3.638544679e-02f, 3.031195886e-02f},
    {9.993250668e-02f, 7.782437652e-02f, -1.932500675e-02f, -1.638611108e-01f, -5.826999620e-02f, -9.425448626e-02f, -2.132441290e-02f, -3.863109276e-02f, 2.059401304e-04f, -1.822057064e-03f, -1.436829418e-01f, 1.615758687e-01f},
    {1.562052406e-02f, 2.964527719e-02f, -5.587599427e-02f, -6.215283647e-02f, 5.494193733e-02f, 7.344284561e-03f, -7.833459973e-02f, -7.704060525e-02f, 3.933674842e-02f, -1.643746346e-02f, -1.062794551e-01f, 1.596409082e-01f},
    {9.224266559e-02f, -4.778704792e-02f, 2.856819890e-02f, -4.536809027e-02f, 4.460633546e-02f, -1.304368973e-01f, 3.390864003e-03f, 3.152517974e-02f, -5.268531293e-02f, -2.425105684e-02f, 4.827830195e-02f, 3.216525540e-03f},
    {8.285352960e-04f, 9.885637462e-02f, 5.996997282e-02f, 4.585956037e-02f, 1.680774093e-01f, -1.112578362e-01f, -9.489223361e-02f, 7.469168399e-03f, 1.744739711e-02f, 7.700869441e-02f, -5.409431085e-02f, -8.640430868e-02f},
    {1.454250049e-02f, 3.267448768e-02f, -6.746978313e-02f, -1.074882150e-01f, 1.305429339e-01f, -6.850267947e-02f, -1.477419436e-01f, 3.114778362e-02f, 4.888146650e-04f, -7.374402881e-02f, -1.304332614e-01f, -4.024603590e-02f},
    {8.109647036e-02f, 6.645893306e-02f, -3.945514932e-02f, 7.551563531e-02f, 5.468115956e-02f, -7.980269939e-02f, -8.005000651e-02f, 1.098368466e-01f, 4.376109689e-03f, 3.331895173e-02f, 5.309361592e-02f, -1.589180082e-01f},
    {5.618835241e-02f, 9.252810478e-02f, -1.024284512e-01f, -1.022754014e-01f, -6.596817821e-02f, -6.734161079e-02f, 4.062104970e-02f, 4.146840051e-02f, -1.647121459e-02f, -9.071238339e-02f, -1.169069558e-01f, -3.927744925e-02f},
    {-5.907731876e-02f, -8.668672293e-02f, 1.229208410e-01f, 6.151010748e-03f, 8.692725748e-02f, -1.919918694e-02f, -7.616762817e-02f, 7.784938067e-02f, 1.972128265e-02f, 4.948387295e-02f, 3.646635637e-02f, -8.081769943e-02f},
    {-1.925288886e-01f, 1.406269670e-01f, 5.084378272e-02f, 6.594957411e-02f, 5.982046202e-02f, 4.609630629e-02f, -3.322156146e-02f, -1.274989694e-01f, 5.468319729e-02f, -1.234575175e-02f, -6.158213317e-02f, 7.836596668e-02f},
    {5.473981798e-02f, 1.314868592e-02f, 8.405503631e-02f, 7.538128644e-02f, -4.107931629e-02f, 2.775926515e-02f, -1.338165849e-01f, 9.008587897e-02f, -3.040706553e-02f, 5.849539116e-02f, 7.500504702e-02f, -1.275784336e-02f},
    {-9.710164368e-02f, 2.598322369e-02f, -5.093504488e-02f, 8.511312306e-02f, -1.086111814e-01f, 6.281295419e-02f, 1.785630360e-02f, -5.579366162e-02f, 1.355243102e-02f, -5.317081884e-02f, -9.214589745e-02f, -2.109043300e-02f},
    {-2.576070465e-02f, -1.291943900e-02f, 4.325475544e-02f, -9.552420117e-03f, -2.423541620e-02f, -7.101283967e-02f, 4.369847849e-02f, -7.784838090e-04f, 6.841727532e-03f, -1.613937132e-02f, 5.942521617e-02f, -5.497722700e-02f},
    {-1.148018762e-01f, -6.209254637e-02f, -3.807118163e-02f, -1.054019388e-02f, 2.862012945e-03f, 3.995957319e-03f, -3.216687217e-02f, -1.204139739e-01f, 2.951111645e-02f, 6.440017372e-02f, 4.732338339e-02f, -1.116591692e-02f},
    {1.482289401e-03f, 6.667583436e-02f, 5.002864450e-02f, -6.883934885e-02f, 1.885286719e-02f, 6.209011003e-02f, 4.452969879e-02f, -1.578238010e-01f, 2.932591550e-02f, -7.448305190e-02f, 7.044521719e-02f, -4.302071035e-02f},
    {-2.968477085e-02f, -4.033629596e-02f, -4.846033081e-02f, 6.275024265e-02f, -7.304392755e-02f, 3.841660172e-02f, -8.691617846e-02f, 4.137664661e-02f, 4.756539688e-02f, 1.512802765e-02f, -8.463724703e-02f, 7.401398569e-02f},
    {5.498614907e-02f, 7.814981788e-02f, -3.194157034e-02f, 2.976299264e-02f, -5.793996900e-02f, 9.197755717e-03f, -1.268503517e-01f, 4.245150089e-02f, 9.820935875e-02f, -6.446284801e-02f, 2.030753903e-02f, -6.242473423e-02f},
    {-3.864785656e-03f, -6.773126125e-02f, 1.426040679e-01f, -3.494202718e-02f, -6.988940388e-02f, -3.968922049e-02f, -3.216713667e-02f, -6.324125081e-02f, -4.275929555e-02f, -1.500196173e-03f, -3.934568539e-02f, 5.819262937e-02f},
    {-4.946787283e-02f, 2.992944047e-02f, -5.711404979e-02f, 3.120615147e-02f, 8.490779996e-02f, 3.785979748e-02f, -6.773521658e-03f, -1.345239766e-02f, 9.247229248e-02f, 3.754937276e-02f, 4.550488293e-02f, -5.594219267e-02f},
    {1.738769747e-02f, -9.582072496e-02f, 2.257428691e-02f, 5.737055838e-02f, 1.677955501e-02f, 8.372543007e-02f, -2.481684461e-02f, -3.949256614e-03f, 6.510004401e-02f, 2.987513132e-02f, 6.323381513e-02f, 4.690323770e-02f},
    {3.661487997e-02f, 4.470394179e-02f, -9.326101281e-04f, -4.899541289e-02f, -7.298010588e-02f, 1.016847938e-01f, 1.791195571e-02f, -5.705818534e-02f, -4.139300063e-02f, 1.118158363e-02f, -4.635434225e-02f, 3.880013525e-02f},
    {-6.162423268e-02f, 4.283902794e-02f, 6.448403583e-04f, -7.360483706e-02f, 6.287026405e-02f, -6.962371618e-02f, 7.441944629e-02f, 5.771401525e-02f, 9.499215335e-02f, -3.512910008e-02f, 4.191621020e-02f, -3.422098979e-02f},
    {8.704160899e-02f, 7.448381931e-02f, -2.441567928e-02f, 1.394807640e-02f, 5.080481619e-02f, -7.616154104e-02f, -5.944554135e-02f, 4.270007089e-02f, 7.948324829e-02f, 7.454854995e-02f, -7.711245213e-03f, 7.279824466e-02f},
    {6.096144393e-02f, 4.451406375e-02f, 3.180014715e-02f, 2.312017791e-02f, 9.220228530e-04f, 8.507510647e-03f, 5.843966827e-02f, -5.008056387e-02f, -1.841942896e-03f, -8.145026863e-02f, 1.134857163e-01f, 6.262607127e-02f},
    {-5.701136962e-02f, 8.361079730e-03f, -7.446328551e-02f, 7.283836138e-03f, -5.268272758e-02f, -9.272346646e-02f, 1.982014813e-02f, 8.137915283e-02f, 6.277337670e-02f, 3.760429844e-02f, -7.309284806e-02f, 2.842462435e-02f},
    {-2.935400233e-02f, -1.303551346e-02f, -1.042828113e-01f, -1.376080979e-02f, 1.015602425e-01f, 1.352196094e-02f, 1.450186223e-02f, 2.043518797e-02f, -4.048356786e-02f, 6.349981576e-02f, 2.607062832e-02f, -2.196548134e-02f},
    {4.085037485e-02f, -7.878161967e-02f, 6.404920667e-02f, 6.959612668e-02f, -8.991200477e-02f, -6.092803925e-02f, 3.456175700e-02f, 1.013188623e-02f, -5.757236853e-02f, 6.952103227e-02f, -5.643692240e-02f, -1.000268906e-01f},
    {3.288333863e-02f, -5.018985271e-02f, 8.404259384e-02f, 1.598580182e-02f, -7.751040161e-02f, -6.339282542e-02f, 4.047508352e-03f, 9.135913104e-03f, -7.362746447e-02f, 8.855044842e-02f, -5.466403067e-02f, 1.678907126e-02f},
    {-3.572618216e-02f, -1.134244911e-02f, -7.663493603e-02f, 1.350446697e-02f, 1.200392097e-02f, -7.272262126e-02f, -7.645551860e-02f, 3.424913064e-02f, -2.219089307e-02f, -3.796732053e-02f, -2.636561915e-02f, -9.939364344e-02f},
    {1.355756819e-01f, 5.554533750e-02f, -4.350909218e-02f, -7.212104648e-02f, 5.195469409e-02f, -4.402046651e-02f, 9.212578088e-02f, 4.163448140e-02f, -2.593403915e-03f, 1.503692754e-02f, -5.834697932e-02f, 8.320356905e-02f},
    {3.425418958e-02f, 8.983585052e-03f, -6.675843149e-02f, -1.050120592e-01f, 3.662626958e-03f, 1.560535096e-02f, 3.492340818e-02f, 4.543627799e-02f, -6.995932013e-02f, 3.942859545e-02f, 5.463578552e-02f, 6.962607801e-02f},
    {-9.458445013e-02f, -5.137920380e-02f, -4.397508223e-03f, 1.226321980e-01f, -2.764718421e-02f, -5.515696108e-02f, -5.216042697e-02f, -3.643297404e-02f, -1.989188045e-02f, 1.338385195e-01f, -2.715328708e-02f, 1.289466862e-02f},
    {4.101121426e-02f, -3.166617453e-02f, -8.405102044e-02f, -8.793117106e-02f, -1.189814359e-01f, -6.134429201e-02f, 4.385409132e-02f, -4.537719116e-02f, 1.208060305e-03f, -6.999320537e-02f, 1.038618851e-03f, 4.470973462e-02f},
    {1.371358633e-01f, -1.359064132e-01f, -2.246646024e-02f, -1.131917685e-01f, 8.988735080e-02f, 1.128801256e-01f, -6.677718367e-03f, 1.370865703e-01f, -1.182115451e-01f, -4.833060130e-02f, -5.645522103e-02f, -1.219989881e-01f},
    {-1.698805578e-02f, 3.829499707e-02f, -4.079891741e-02f, 1.301802099e-01f, -1.563719660e-01f, 4.369473085e-02f, -5.143056437e-02f, 6.502593867e-03f, -1.175746769e-01f, -3.793361410e-02f, -2.327429689e-02f, 1.635070145e-01f},
    {1.379194111e-01f, -1.071202308e-01f, -6.745889783e-02f, 1.147270575e-01f, -1.379081458e-01f, 9.278815985e-02f, -4.551092908e-02f, 4.419858754e-02f, 5.206481367e-02f, 4.186464474e-03f, -1.905758865e-02f, 1.414100975e-01f},
    {-1.138458587e-02f, -1.439940035e-01f, 2.178296074e-02f, -1.158110648e-01f, 1.196069643e-02f, 1.320994943e-01f, 1.508334577e-01f, -6.640587747e-02f, 2.407532185e-02f, 6.654330343e-02f, 8.138541132e-02f, -1.108645368e-02f},
    {1.272290796e-01f, -1.207093820e-01f, -1.270474792e-01f, -7.468640804e-02f, -1.458888799e-01f, 1.664763130e-02f, 3.923186567e-03f, 1.493862569e-01f, 4.627661407e-02f, 6.991911680e-02f, -8.739086241e-02f, 9.665936232e-02f},
    {6.949476898e-02f, -5.913743749e-02f, -1.790661924e-02f, -6.877225637e-02f, -5.996117741e-02f, 5.136909336e-02f, 1.031686068e-01f, 8.046795428e-02f, -7.805951405e-03f, 1.217171550e-01f, -6.148117036e-02f, 4.220192786e-03f},
    {1.118521169e-01f, 9.301014990e-02f, -1.469867229e-01f, 5.576978996e-02f, -2.188859284e-01f, -3.184217215e-02f, -1.780877938e-03f, -4.071887210e-02f, 5.557901040e-02f, -1.512860786e-02f, -1.107915044e-01f, 2.011115998e-01f},
    {-1.124532707e-02f, -1.195483431e-01f, -7.447362691e-02f, -2.185595222e-02f, 1.300512999e-02f, 7.545717806e-02f, 6.249522790e-02f, -5.364710465e-02f, 3.423475660e-03f, -1.011490449e-01f, 1.686768793e-02f, 4.392097145e-02f},
    {7.436544448e-02f, -1.276198775e-01f, -8.121208288e-03f, -1.404134929e-01f, -1.717277467e-01f, 2.970225178e-04f, -2.756801061e-02f, -6.675852090e-02f, -3.270189464e-02f, -1.867090352e-02f, -7.569915056e-02f, 1.635027677e-01f},
    {6.599452347e-02f, -6.776768714e-02f, -1.329636872e-01f, -1.421065181e-01f, -5.762777478e-02f, 3.265062347e-02f, -8.694494143e-03f, 8.574035764e-02f, -3.073339909e-02f, 2.296548709e-02f, 3.282729164e-02f, 1.345146298e-01f},
    {-1.597713493e-02f, -1.017436758e-01f, -9.774021059e-02f, -5.126808211e-02f, 2.140310965e-02f, 6.929054111e-02f, -8.693151176e-02f, -4.154112935e-02f, -6.849326193e-02f, -2.351200394e-02f, 2.540926822e-02f, 1.096391454e-01f},
    {-3.271841630e-02f, -2.753874101e-02f, -1.639160514e-01f, -1.253357083e-01f, 1.481857616e-02f, 1.004645675e-01f, 7.744188607e-02f, -8.371055871e-02f, 4.324295372e-02f, -2.891831845e-02f, -1.059003323e-01f, 1.426150650e-01f},
    {7.836390287e-02f, -2.308610454e-02f, -1.755381972e-01f, -6.664949656e-02f, -2.907103114e-02f, 3.594823182e-02f, -8.258471638e-02f, -4.013792053e-02f, 6.268363446e-02f, -2.085712366e-02f, 2.832346596e-02f, 8.069880307e-02f},
    {9.045308456e-03f, -1.027101502e-01f, -1.942308098e-01f, -7.054035366e-02f, -7.265673578e-02f, -2.169937594e-03f, -8.556520939e-02f, -5.357002374e-03f, -6.446096301e-02f, 3.313992545e-02f, 4.466078058e-02f, 1.949613690e-01f},
    {3.248668462e-02f, -9.483636916e-02f, 1.251637004e-02f, -6.857548724e-04f, -1.978020668e-01f, 3.881210694e-03f, -4.160696268e-02f, 1.151258573e-01f, 4.758254625e-03f, 1.169812530e-01f, -2.003687434e-02f, 8.588016033e-02f},
    {-1.955927908e-02f, -4.624835774e-02f, 6.773241330e-03f, 5.290709808e-02f, 4.476672783e-02f, 4.316336289e-02f, -2.807220817e-02f, -8.301656693e-02f, -1.425989568e-01f, 1.048477665e-01f, 1.225670613e-02f, 2.195054851e-02f},
    {4.900638014e-02f, -9.888927639e-02f, -1.057552248e-01f, 6.079514697e-02f, 6.039113551e-02f, 1.333315521e-01f, -9.464998543e-02f, 6.798554678e-03f, -9.957405925e-02f, 1.671665115e-03f, 3.732870566e-03f, 8.202579338e-04f},
    {3.334336725e-05f, 7.476243377e-02f, -4.159235582e-02f, 2.699159272e-02f, 2.238878980e-02f, 7.764597237e-02f, -7.564140856e-02f, 5.132872611e-03f, -1.978999376e-02f, -3.834978119e-02f, -1.071361005e-01f, -4.179484025e-02f},
    {-7.803875208e-02f, -5.976068228e-02f, -9.219110012e-02f, 1.434405297e-01f, -1.364544779e-02f, 5.008287728e-02f, -1.787459403e-01f, 7.887613028e-02f, -1.456455700e-02f, -7.256601006e-02f, -1.450164616e-01f, -2.410586737e-02f},
    {4.608772323e-02f, -1.722776592e-01f, -5.413004756e-02f, -4.353776574e-02f, -6.400761753e-02f, 3.224952891e-02f, 4.057635739e-02f, -2.645516396e-02f, -1.565504968e-01f, -5.343536288e-02f, -1.345366985e-01f, -2.530324087e-02f},
    {1.209178418e-01f, 1.035291981e-02f, -1.824631542e-01f, 6.239147857e-02f, -1.695065945e-02f, 8.620665222e-02f, 2.097197430e-04f, -3.066729568e-02f, -7.634645700e-02f, -3.036700375e-02f, 4.102085531e-02f, 1.171786431e-02f},
    {-3.501878679e-02f, -1.600343436e-01f, -1.812220216e-01f, 1.364457011e-01f, -4.605733324e-03f, -1.430859417e-02f, -1.584316641e-01f, 6.689490285e-03f, -1.487599313e-01f, -2.716038749e-02f, -3.065492027e-02f, 6.304053217e-02f},
    {1.434016824e-01f, -6.811433285e-02f, -1.983884275e-01f, 1.348231919e-02f, -1.503839344e-01f, -9.920026362e-02f, -5.630184710e-02f, 1.342137810e-02f, -7.703505456e-02f, 8.489666134e-02f, 2.563706785e-02f, 2.216378599e-01f},
    {-7.402013987e-02f, 1.040402725e-01f, -4.963736609e-02f, 1.674808189e-02f, 4.550439864e-02f, 5.811834335e-02f, -1.249541268e-01f, -1.115274616e-02f, 4.718109965e-02f, -1.235938258e-02f, -8.553370088e-02f, 9.543079138e-02f},
    {-2.279207297e-02f, -1.534191817e-01f, -3.863340244e-02f, 2.812986029e-03f, 2.028744668e-02f, -4.845764022e-03f, 1.650129445e-02f, 3.259316459e-02f, -1.294401437e-01f, -6.189560890e-02f, 5.008304119e-02f, 8.213472366e-02f},
    {-8.902621455e-03f, -3.875838593e-02f, -9.765090048e-02f, 5.410523340e-02f, 1.352404952e-01f, -1.699970476e-02f, 6.746309809e-03f, -1.557102241e-02f, 5.455508083e-02f, -5.022842064e-02f, -8.086788654e-02f, 1.559814438e-03f},
    {-3.665753826e-02f, 1.756825596e-01f, -1.255350746e-02f, 1.047617495e-01f, 5.178820342e-02f, -5.269908533e-02f, -1.272630244e-01f, 3.983011469e-02f, 4.937390238e-02f, -5.597511306e-02f, -9.809887409e-02f, 2.237802744e-02f},
    {8.677025884e-02f, -1.056699604e-01f, 5.181654915e-02f, -9.763355553e-02f, 1.225668285e-02f, -5.886291340e-02f, -7.607153058e-02f, 7.250508666e-02f, -1.074932143e-01f, 9.156336635e-02f, -8.704847097e-02f, 1.544230990e-02f},
    {7.976096869e-02f, -1.592859998e-02f, -2.407325245e-02f, 1.675189435e-01f, -1.964888163e-02f, 3.566128761e-02f, -1.291301250e-01f, -4.079465196e-02f, -3.872009739e-02f, -8.355095237e-02f, 2.875077911e-02f, 8.577416092e-02f},
    {-1.249584369e-02f, 1.304251403e-01f, -1.446058154e-01f, 4.413993284e-02f, 4.370075092e-02f, 1.052820012e-01f, -8.446583897e-02f, -6.534872204e-02f, 5.502466229e-04f, 8.673927933e-02f, -9.354631416e-03f, 8.719879389e-02f},
    {-1.548018754e-01f, 1.548499428e-02f, 1.124759465e-01f, 4.244093969e-02f, 9.450310469e-02f, 2.395428903e-02f, -9.697650373e-02f, -8.998619020e-02f, 9.303199500e-02f, -9.056114405e-02f, -1.250539273e-01f, -1.602908224e-02f},
    {-7.518632710e-02f, 8.232349902e-02f, 6.044467539e-02f, -5.503885448e-02f, -1.211602520e-02f, -3.660449386e-02f, 6.496282667e-02f, 1.954506338e-02f, -2.635758556e-02f, 7.299427688e-02f, -9.051824361e-02f, -6.482633203e-02f},
    {9.922307730e-02f, 1.098885909e-01f, -6.291367114e-02f, 5.255949683e-03f, -2.389287576e-02f, -1.750214025e-02f, -2.440556511e-02f, 1.509934515e-01f, 1.130503193e-01f, -9.242304415e-02f, -9.502336383e-02f, -6.124949455e-02f},
    {6.477936357e-02f, 1.406799257e-01f, 3.690103814e-02f, 1.122594252e-01f, -1.884084940e-02f, -9.292238206e-02f, -1.378307939e-01f, 1.064328402e-01f, 8.233131468e-02f, 4.926777328e-04f, -6.512776762e-02f, -3.808358312e-02f},
    {3.684357554e-02f, 5.392359197e-02f, 4.304563254e-02f, 7.849609107e-02f, 8.914033324e-02f, 1.342361793e-02f, -1.184654757e-01f, 3.475875035e-02f, -3.377614543e-02f, 7.872123970e-04f, -2.684900351e-02f, 2.805153653e-02f},
    {-2.737000585e-02f, -3.607335314e-02f, 4.057690501e-02f, -7.541371509e-03f, 1.353619099e-01f, -1.048844457e-01f, -9.232863039e-02f, -7.865278423e-02f, 6.302575767e-02f, -3.326720092e-03f, -6.000565737e-02f, -4.755290598e-02f},
    {-7.188814878e-02f, -2.492133155e-02f, -1.224088576e-02f, 3.846675903e-02f, 1.249309033e-01f, -4.590385407e-02f, -5.193375051e-02f, -1.174507588e-01f, 3.192560375e-02f, 2.559660748e-02f, 4.952269047e-02f, 2.798948064e-02f},
    {2.907126583e-02f, -1.907811873e-02f, 3.934264183e-02f, 9.950543195e-02f, 3.065241128e-02f, 2.281192690e-02f, -7.792770863e-02f, 4.209815338e-02f, 2.674722113e-02f, 4.994787276e-02f, -3.259985149e-02f, -6.157024205e-02f},
    {-2.335340902e-02f, 1.664091945e-01f, -1.335677356e-01f, 1.012386084e-01f, -9.544493258e-02f, -7.994666696e-02f, -3.351680934e-02f, 1.029462740e-01f, 8.446517587e-02f, -6.149686128e-02f, -7.887887210e-02f, 2.016413957e-02f},
    {-3.174098954e-02f, -5.492848158e-02f, 8.630471677e-02f, 9.733401239e-02f, -6.909254193e-02f, 7.219744474e-02f, -9.218522161e-02f, -9.360319376e-02f, -8.676226251e-03f, -1.472916640e-02f, -1.111234203e-01f, 2.423103340e-02f},
